{"learner":{"attributes":{"best_iteration":"199","best_ntree_limit":"200","scikit_learn":"{\"n_estimators\": 200, \"objective\": \"reg:squarederror\", \"max_depth\": 3, \"max_leaves\": null, \"max_bin\": null, \"grow_policy\": null, \"learning_rate\": 0.2, \"verbosity\": null, \"booster\": null, \"tree_method\": \"hist\", \"gamma\": null, \"min_child_weight\": null, \"max_delta_step\": null, \"subsample\": null, \"sampling_method\": null, \"colsample_bytree\": null, \"colsample_bylevel\": null, \"colsample_bynode\": null, \"reg_alpha\": null, \"reg_lambda\": null, \"scale_pos_weight\": null, \"base_score\": null, \"missing\": NaN, \"num_parallel_tree\": null, \"random_state\": 42, \"n_jobs\": -1, \"monotone_constraints\": null, \"interaction_constraints\": null, \"importance_type\": null, \"gpu_id\": null, \"validate_parameters\": null, \"predictor\": null, \"enable_categorical\": false, \"feature_types\": null, \"max_cat_to_onehot\": null, \"max_cat_threshold\": null, \"eval_metric\": \"rmse\", \"early_stopping_rounds\": null, \"callbacks\": null, \"_estimator_type\": \"regressor\"}"},"feature_names":[],"feature_types":[],"gradient_booster":{"model":{"gbtree_model_param":{"num_parallel_tree":"1","num_trees":"200","size_leaf_vector":"0"},"tree_info":[0,0,0,0,0,0,0,0,0,0,0,0,0,0,0,0,0,0,0,0,0,0,0,0,0,0,0,0,0,0,0,0,0,0,0,0,0,0,0,0,0,0,0,0,0,0,0,0,0,0,0,0,0,0,0,0,0,0,0,0,0,0,0,0,0,0,0,0,0,0,0,0,0,0,0,0,0,0,0,0,0,0,0,0,0,0,0,0,0,0,0,0,0,0,0,0,0,0,0,0,0,0,0,0,0,0,0,0,0,0,0,0,0,0,0,0,0,0,0,0,0,0,0,0,0,0,0,0,0,0,0,0,0,0,0,0,0,0,0,0,0,0,0,0,0,0,0,0,0,0,0,0,0,0,0,0,0,0,0,0,0,0,0,0,0,0,0,0,0,0,0,0,0,0,0,0,0,0,0,0,0,0,0,0,0,0,0,0,0,0,0,0,0,0,0,0,0,0,0,0],"trees":[{"base_weights":[3.4180996E1,2.143666E1,3.993396E1,3.5303215E1,1.7530846E1,3.545768E1,5.902076E1,1.2138095E0,7.1551943E0,2.9818876E0,5.1437864E0,7.7718096E0,5.1408553E0,8.186328E0,1.222858E1],"categories":[],"categories_nodes":[],"categories_segments":[],"categories_sizes":[],"default_left":[0,0,0,0,0,0,0,0,0,0,0,0,0,0,0],"id":0,"left_children":[1,3,5,7,9,11,13,-1,-1,-1,-1,-1,-1,-1,-1],"loss_changes":[5.3325812E4,1.1946273E4,4.1309625E4,4.7391016E2,3.5445156E3,1.27355625E4,1.1441562E3,0E0,0E0,0E0,0E0,0E0,0E0,0E0,0E0],"parents":[2147483647,0,0,1,1,2,2,3,3,4,4,5,5,6,6],"right_children":[2,4,6,8,10,12,14,-1,-1,-1,-1,-1,-1,-1,-1],"split_conditions":[-2.1668652E-1,-8.770693E-1,8.247258E-1,-1.0820255E0,-7.0127636E-1,9.168317E-1,-2.3381715E-1,1.2138095E0,7.1551943E0,2.9818876E0,5.1437864E0,7.7718096E0,5.1408553E0,8.186328E0,1.222858E1],"split_indices":[7,8,11,7,7,8,9,0,0,0,0,0,0,0,0],"split_type":[0,0,0,0,0,0,0,0,0,0,0,0,0,0,0],"sum_hessian":[7.38E2,2.31E2,5.07E2,4.9E1,1.82E2,4.13E2,9.4E1,1E0,4.8E1,1.4E2,4.2E1,3.04E2,1.09E2,1.2E1,8.2E1],"tree_param":{"num_deleted":"0","num_feature":"12","num_nodes":"15","size_leaf_vector":"0"}},{"base_weights":[2.7412216E1,1.9090742E1,3.437872E1,1.4622637E1,3.0087227E1,3.0700808E1,4.6398E1,1.8776503E0,3.5838223E0,5.003851E0,6.7645082E0,4.525777E0,6.7903132E0,8.029708E0,1.0460626E1],"categories":[],"categories_nodes":[],"categories_segments":[],"categories_sizes":[],"default_left":[0,0,0,0,0,0,0,0,0,0,0,0,0,0,0],"id":1,"left_children":[1,3,5,7,9,11,13,-1,-1,-1,-1,-1,-1,-1,-1],"loss_changes":[4.2184625E4,1.6216297E4,1.6302125E4,4.0247422E3,9.900469E2,7.3660938E3,1.2952656E3,0E0,0E0,0E0,0E0,0E0,0E0,0E0,0E0],"parents":[2147483647,0,0,1,1,2,2,3,3,4,4,5,5,6,6],"right_children":[2,4,6,8,10,12,14,-1,-1,-1,-1,-1,-1,-1,-1],"split_conditions":[-2.555783E-1,7.5249314E-1,7.5249314E-1,-7.0127636E-1,1.03520006E-1,-7.0127636E-1,9.3059236E-1,1.8776503E0,3.5838223E0,5.003851E0,6.7645082E0,4.525777E0,6.7903132E0,8.029708E0,1.0460626E1],"split_indices":[9,7,7,7,11,7,11,0,0,0,0,0,0,0,0],"split_type":[0,0,0,0,0,0,0,0,0,0,0,0,0,0,0],"sum_hessian":[7.38E2,3.38E2,4E2,2.42E2,9.6E1,3.09E2,9.1E1,9.5E1,1.47E2,4.4E1,5.2E1,9.1E1,2.18E2,4.8E1,4.3E1],"tree_param":{"num_deleted":"0","num_feature":"12","num_nodes":"15","size_leaf_vector":"0"}},{"base_weights":[2.1993422E1,1.7788225E1,3.1164206E1,1.4338031E1,2.7240332E1,3.3927246E1,1.8294937E1,1.6451164E0,3.4722707E0,4.7523456E0,6.8260665E0,4.659818E0,7.558244E0,1.5539885E-1,3.7387064E0],"categories":[],"categories_nodes":[],"categories_segments":[],"categories_sizes":[],"default_left":[0,0,0,0,0,0,0,0,0,0,0,0,0,0,0],"id":2,"left_children":[1,3,5,7,9,11,13,-1,-1,-1,-1,-1,-1,-1,-1],"loss_changes":[2.7945156E4,1.6208734E4,7.5932656E3,6.7871562E3,2.4246328E3,6.8811562E3,2.857246E2,0E0,0E0,0E0,0E0,0E0,0E0,0E0,0E0],"parents":[2147483647,0,0,1,1,2,2,3,3,4,4,5,5,6,6],"right_children":[2,4,6,8,10,12,14,-1,-1,-1,-1,-1,-1,-1,-1],"split_conditions":[5.1694274E-1,7.5249314E-1,-2.651825E-1,-7.0127636E-1,-3.4360218E-1,-7.0127636E-1,-9.4357127E-1,1.6451164E0,3.4722707E0,4.7523456E0,6.8260665E0,4.659818E0,7.558244E0,1.5539885E-1,3.7387064E0],"split_indices":[9,7,8,7,9,7,7,0,0,0,0,0,0,0,0],"split_type":[0,0,0,0,0,0,0,0,0,0,0,0,0,0,0],"sum_hessian":[7.38E2,5.08E2,2.3E2,3.74E2,1.34E2,1.88E2,4.2E1,1.25E2,2.49E2,9.2E1,4.2E1,5.2E1,1.36E2,1E0,4.1E1],"tree_param":{"num_deleted":"0","num_feature":"12","num_nodes":"15","size_leaf_vector":"0"}},{"base_weights":[1.7639132E1,1.146495E1,2.2199043E1,8.260265E0,1.9060482E1,1.5084199E1,2.4829685E1,6.46099E-1,2.0330596E0,2.608143E0,4.1930633E0,4.1366057E0,2.4039235E0,3.7643979E0,5.8941054E0],"categories":[],"categories_nodes":[],"categories_segments":[],"categories_sizes":[],"default_left":[0,0,0,0,0,0,0,0,0,0,0,0,0,0,0],"id":3,"left_children":[1,3,5,7,9,11,13,-1,-1,-1,-1,-1,-1,-1,-1],"loss_changes":[2.055111E4,7.5344062E3,7.5612812E3,2.113502E3,7.929961E2,1.7588926E3,8.032578E3,0E0,0E0,0E0,0E0,0E0,0E0,0E0,0E0],"parents":[2147483647,0,0,1,1,2,2,3,3,4,4,5,5,6,6],"right_children":[2,4,6,8,10,12,14,-1,-1,-1,-1,-1,-1,-1,-1],"split_conditions":[-3.4360218E-1,7.5249314E-1,-2.1668652E-1,-9.370472E-1,-6.055136E-1,-1.0486759E0,-3.4445083E-1,6.46099E-1,2.0330596E0,2.608143E0,4.1930633E0,4.1366057E0,2.4039235E0,3.7643979E0,5.8941054E0],"split_indices":[9,7,7,11,11,8,11,0,0,0,0,0,0,0,0],"split_type":[0,0,0,0,0,0,0,0,0,0,0,0,0,0,0],"sum_hessian":[7.38E2,3.15E2,4.23E2,2.23E2,9.2E1,1.16E2,3.07E2,6.2E1,1.61E2,2.4E1,6.8E1,3.9E1,7.7E1,1.36E2,1.71E2],"tree_param":{"num_deleted":"0","num_feature":"12","num_nodes":"15","size_leaf_vector":"0"}},{"base_weights":[1.4146054E1,1.9749544E1,1.0664984E1,1.3060739E1,2.2521257E1,3.4928029E0,1.2710123E1,1.9433043E0,3.3512115E0,3.5938394E0,5.4151564E0,9.253845E-1,-4.614543E-2,1.0732034E0,2.7954051E0],"categories":[],"categories_nodes":[],"categories_segments":[],"categories_sizes":[],"default_left":[0,0,0,0,0,0,0,0,0,0,0,0,0,0,0],"id":4,"left_children":[1,3,5,7,9,11,13,-1,-1,-1,-1,-1,-1,-1,-1],"loss_changes":[1.4204406E4,4.9339844E3,6.6735977E3,8.876162E2,3.6184922E3,4.3602917E2,3.2373203E3,0E0,0E0,0E0,0E0,0E0,0E0,0E0,0E0],"parents":[2147483647,0,0,1,1,2,2,3,3,4,4,5,5,6,6],"right_children":[2,4,6,8,10,12,14,-1,-1,-1,-1,-1,-1,-1,-1],"split_conditions":[-4.8573214E-1,-7.0127636E-1,-7.0127636E-1,1.0511792E0,8.542407E-1,1.0350989E0,-1.0553008E0,1.9433043E0,3.3512115E0,3.5938394E0,5.4151564E0,9.253845E-1,-4.614543E-2,1.0732034E0,2.7954051E0],"split_indices":[8,7,7,9,9,8,9,0,0,0,0,0,0,0,0],"split_type":[0,0,0,0,0,0,0,0,0,0,0,0,0,0,0],"sum_hessian":[7.38E2,2.81E2,4.57E2,8.4E1,1.97E2,1.02E2,3.55E2,4.6E1,3.8E1,1.01E2,9.6E1,7.8E1,2.4E1,5.3E1,3.02E2],"tree_param":{"num_deleted":"0","num_feature":"12","num_nodes":"15","size_leaf_vector":"0"}},{"base_weights":[1.1342624E1,7.1598606E0,1.4433213E1,4.8332944E0,1.26866455E1,1.2518472E1,2.0844849E1,2.3115464E-1,1.2467213E0,2.0772254E0,3.2746499E0,2.9614258E0,1.7230786E0,1.9878012E0,4.3994803E0],"categories":[],"categories_nodes":[],"categories_segments":[],"categories_sizes":[],"default_left":[0,0,0,0,0,0,0,0,0,0,0,0,0,0,0],"id":5,"left_children":[1,3,5,7,9,11,13,-1,-1,-1,-1,-1,-1,-1,-1],"loss_changes":[9.449859E3,4.0019473E3,4.9443438E3,1.1463232E3,6.186885E2,2.8113242E3,9.8804297E2,0E0,0E0,0E0,0E0,0E0,0E0,0E0,0E0],"parents":[2147483647,0,0,1,1,2,2,3,3,4,4,5,5,6,6],"right_children":[2,4,6,8,10,12,14,-1,-1,-1,-1,-1,-1,-1,-1],"split_conditions":[-3.4360218E-1,7.5249314E-1,7.5249314E-1,-9.370472E-1,6.582785E-2,-2.651825E-1,-2.111375E0,2.3115464E-1,1.2467213E0,2.0772254E0,3.2746499E0,2.9614258E0,1.7230786E0,1.9878012E0,4.3994803E0],"split_indices":[9,7,7,11,4,8,6,0,0,0,0,0,0,0,0],"split_type":[0,0,0,0,0,0,0,0,0,0,0,0,0,0,0],"sum_hessian":[7.38E2,3.15E2,4.23E2,2.23E2,9.2E1,3.28E2,9.5E1,6.2E1,1.61E2,5.9E1,3.3E1,2.05E2,1.23E2,1E1,8.5E1],"tree_param":{"num_deleted":"0","num_feature":"12","num_nodes":"15","size_leaf_vector":"0"}},{"base_weights":[9.098323E0,7.4100456E0,1.4748665E1,2.5655432E0,8.918751E0,4.2872667E0,1.6367329E1,9.727753E-1,1.5294059E-1,9.414341E-1,2.0590675E0,2.7692327E-1,1.6425031E0,2.565141E0,3.985567E0],"categories":[],"categories_nodes":[],"categories_segments":[],"categories_sizes":[],"default_left":[0,0,0,0,0,0,0,0,0,0,0,0,0,0,0],"id":6,"left_children":[1,3,5,7,9,11,13,-1,-1,-1,-1,-1,-1,-1,-1],"loss_changes":[6.940285E3,4.1505156E3,2.791586E3,5.6331396E2,2.4734922E3,2.6207587E2,1.5854688E3,0E0,0E0,0E0,0E0,0E0,0E0,0E0,0E0],"parents":[2147483647,0,0,1,1,2,2,3,3,4,4,5,5,6,6],"right_children":[2,4,6,8,10,12,14,-1,-1,-1,-1,-1,-1,-1,-1],"split_conditions":[8.868824E-1,-7.0127636E-1,-9.4357127E-1,-2.3789492E-1,-7.887266E-1,1.5534592E0,-4.071284E-1,9.727753E-1,1.5294059E-1,9.414341E-1,2.0590675E0,2.7692327E-1,1.6425031E0,2.565141E0,3.985567E0],"split_indices":[9,7,7,8,9,11,6,0,0,0,0,0,0,0,0],"split_type":[0,0,0,0,0,0,0,0,0,0,0,0,0,0,0],"sum_hessian":[7.38E2,5.7E2,1.68E2,1.36E2,4.34E2,2.3E1,1.45E2,5.9E1,7.7E1,1.08E2,3.26E2,1.4E1,9E0,7.5E1,7E1],"tree_param":{"num_deleted":"0","num_feature":"12","num_nodes":"15","size_leaf_vector":"0"}},{"base_weights":[7.2957034E0,5.777092E0,1.1945472E1,2.2633054E0,7.1928115E0,6.804337E0,1.44385605E1,-6.151221E-2,7.720636E-1,5.9659284E-1,1.6897538E0,2.105869E0,9.4608945E-1,3.0536134E0,1.6265297E-1],"categories":[],"categories_nodes":[],"categories_segments":[],"categories_sizes":[],"default_left":[0,0,0,0,0,0,0,0,0,0,0,0,0,0,0],"id":7,"left_children":[1,3,5,7,9,11,13,-1,-1,-1,-1,-1,-1,-1,-1],"loss_changes":[5.149215E3,2.7644863E3,2.2216875E3,6.6631165E2,2.0791777E3,4.2143213E2,1.3551582E3,0E0,0E0,0E0,0E0,0E0,0E0,0E0,0E0],"parents":[2147483647,0,0,1,1,2,2,3,3,4,4,5,5,6,6],"right_children":[2,4,6,8,10,12,14,-1,-1,-1,-1,-1,-1,-1,-1],"split_conditions":[7.1661705E-1,-2.1668652E-1,-7.0127636E-1,-9.4357127E-1,-1.0409836E0,-1.1773691E0,6.9256824E-1,-6.151221E-2,7.720636E-1,5.9659284E-1,1.6897538E0,2.105869E0,9.4608945E-1,3.0536134E0,1.6265297E-1],"split_indices":[11,7,7,7,0,8,3,0,0,0,0,0,0,0,0],"split_type":[0,0,0,0,0,0,0,0,0,0,0,0,0,0,0],"sum_hessian":[7.38E2,5.58E2,1.8E2,1.61E2,3.97E2,6E1,1.2E2,6.2E1,9.9E1,9.2E1,3.05E2,2E1,4E1,1.13E2,7E0],"tree_param":{"num_deleted":"0","num_feature":"12","num_nodes":"15","size_leaf_vector":"0"}},{"base_weights":[5.8491E0,4.8663497E0,1.1085197E1,7.7534833E0,3.4145749E0,3.1475923E0,1.2323738E1,1.0795226E0,2.020539E0,5.1247096E-1,1.4409271E0,1.1292413E0,-7.382484E-2,4.915981E-1,2.6785243E0],"categories":[],"categories_nodes":[],"categories_segments":[],"categories_sizes":[],"default_left":[0,0,0,0,0,0,0,0,0,0,0,0,0,0,0],"id":8,"left_children":[1,3,5,7,9,11,13,-1,-1,-1,-1,-1,-1,-1,-1],"loss_changes":[3.7487832E3,2.589002E3,1.1016113E3,1.0966318E3,1.3284346E3,1.5146175E2,1.02161523E3,0E0,0E0,0E0,0E0,0E0,0E0,0E0,0E0],"parents":[2147483647,0,0,1,1,2,2,3,3,4,4,5,5,6,6],"right_children":[2,4,6,8,10,12,14,-1,-1,-1,-1,-1,-1,-1,-1],"split_conditions":[1.2568221E0,-2.4646862E-1,-9.4357127E-1,-1.8159036E-1,1.9293542E0,-5.0481606E-1,-2.6710033E-1,1.0795226E0,2.020539E0,5.1247096E-1,1.4409271E0,1.1292413E0,-7.382484E-2,4.915981E-1,2.6785243E0],"split_indices":[9,3,7,9,7,2,0,0,0,0,0,0,0,0,0],"split_type":[0,0,0,0,0,0,0,0,0,0,0,0,0,0,0],"sum_hessian":[7.38E2,6.23E2,1.15E2,2.07E2,4.16E2,1.6E1,9.9E1,1.05E2,1.02E2,3.41E2,7.5E1,9E0,7E0,1E1,8.9E1],"tree_param":{"num_deleted":"0","num_feature":"12","num_nodes":"15","size_leaf_vector":"0"}},{"base_weights":[4.691837E0,6.560095E0,2.7067535E0,4.982544E0,9.776793E0,1.4355661E0,6.5043654E0,8.696915E-1,2.311617E0,1.7187111E0,3.2534645E0,-1.5248114E-1,5.330508E-1,-5.084805E-1,1.4132878E0],"categories":[],"categories_nodes":[],"categories_segments":[],"categories_sizes":[],"default_left":[0,0,0,0,0,0,0,0,0,0,0,0,0,0,0],"id":9,"left_children":[1,3,5,7,9,11,13,-1,-1,-1,-1,-1,-1,-1,-1],"loss_changes":[2.7229346E3,1.8795967E3,1.7285542E3,1.0212925E3,8.125049E2,7.34496E2,4.756106E2,0E0,0E0,0E0,0E0,0E0,0E0,0E0,0E0],"parents":[2147483647,0,0,1,1,2,2,3,3,4,4,5,5,6,6],"right_children":[2,4,6,8,10,12,14,-1,-1,-1,-1,-1,-1,-1,-1],"split_conditions":[-1.2831543E-1,-2.4615644E-1,7.5249314E-1,2.3163247E0,1.8661345E0,-7.3127717E-1,-1.5394865E0,8.696915E-1,2.311617E0,1.7187111E0,3.2534645E0,-1.5248114E-1,5.330508E-1,-5.084805E-1,1.4132878E0],"split_indices":[8,1,7,0,9,9,9,0,0,0,0,0,0,0,0],"split_type":[0,0,0,0,0,0,0,0,0,0,0,0,0,0,0],"sum_hessian":[7.38E2,3.79E2,3.59E2,2.56E2,1.23E2,2.7E2,8.9E1,2.35E2,2.1E1,1.06E2,1.7E1,9.7E1,1.73E2,5E0,8.4E1],"tree_param":{"num_deleted":"0","num_feature":"12","num_nodes":"15","size_leaf_vector":"0"}},{"base_weights":[3.766242E0,-6.7644954E-1,4.414753E0,-2.563497E0,1.3052903E0,9.714861E-1,5.3072977E0,-5.5828565E-1,8.3771974E-1,-4.4661555E-1,3.7551314E-1,1.4077517E-2,8.185896E-1,1.4065846E0,7.0259E-1],"categories":[],"categories_nodes":[],"categories_segments":[],"categories_sizes":[],"default_left":[0,0,0,0,0,0,0,0,0,0,0,0,0,0,0],"id":10,"left_children":[1,3,5,7,9,11,13,-1,-1,-1,-1,-1,-1,-1,-1],"loss_changes":[2.1321445E3,3.586117E2,1.9771025E3,8.710379E1,9.936403E1,3.766197E2,1.5606367E3,0E0,0E0,0E0,0E0,0E0,0E0,0E0,0E0],"parents":[2147483647,0,0,1,1,2,2,3,3,4,4,5,5,6,6],"right_children":[2,4,6,8,10,12,14,-1,-1,-1,-1,-1,-1,-1,-1],"split_conditions":[-9.4357127E-1,-4.718143E-2,-7.887266E-1,1.6443224E0,-5.5854315E-1,4.547535E-1,1.4418635E-1,-5.5828565E-1,8.3771974E-1,-4.4661555E-1,3.7551314E-1,1.4077517E-2,8.185896E-1,1.4065846E0,7.0259E-1],"split_indices":[7,4,9,2,10,11,3,0,0,0,0,0,0,0,0],"split_type":[0,0,0,0,0,0,0,0,0,0,0,0,0,0,0],"sum_hessian":[7.38E2,9.4E1,6.44E2,4.8E1,4.6E1,1.33E2,5.11E2,4.7E1,1E0,6E0,4E1,1.04E2,2.9E1,2.59E2,2.52E2],"tree_param":{"num_deleted":"0","num_feature":"12","num_nodes":"15","size_leaf_vector":"0"}},{"base_weights":[3.017256E0,2.1481624E0,5.5530133E0,1.0065941E0,4.2495794E0,3.4676406E0,7.645946E0,2.5389543E-1,-1.2175589E0,-7.374301E-2,9.9330205E-1,4.213863E-1,1.1557928E0,1.1141735E0,1.9660435E0],"categories":[],"categories_nodes":[],"categories_segments":[],"categories_sizes":[],"default_left":[0,0,0,0,0,0,0,0,0,0,0,0,0,0,0],"id":11,"left_children":[1,3,5,7,9,11,13,-1,-1,-1,-1,-1,-1,-1,-1],"loss_changes":[1.616687E3,1.3199211E3,7.940205E2,6.772616E2,6.4416504E2,2.897478E2,3.6676318E2,0E0,0E0,0E0,0E0,0E0,0E0,0E0,0E0],"parents":[2147483647,0,0,1,1,2,2,3,3,4,4,5,5,6,6],"right_children":[2,4,6,8,10,12,14,-1,-1,-1,-1,-1,-1,-1,-1],"split_conditions":[7.5249314E-1,3.7331912E-1,6.582785E-2,1.8137399E0,-9.4357127E-1,-3.160743E-1,-2.7586368E-1,2.5389543E-1,-1.2175589E0,-7.374301E-2,9.9330205E-1,4.213863E-1,1.1557928E0,1.1141735E0,1.9660435E0],"split_indices":[7,9,4,2,7,9,1,0,0,0,0,0,0,0,0],"split_type":[0,0,0,0,0,0,0,0,0,0,0,0,0,0,0],"sum_hessian":[7.38E2,5.51E2,1.87E2,3.58E2,1.93E2,9.5E1,9.2E1,3.46E2,1.2E1,2.6E1,1.67E2,6.1E1,3.4E1,4.9E1,4.3E1],"tree_param":{"num_deleted":"0","num_feature":"12","num_nodes":"15","size_leaf_vector":"0"}},{"base_weights":[2.4200478E0,2.0702136E0,7.5267496E0,3.6429334E0,1.0998224E0,2.5122488E0,9.577985E0,6.056382E-1,1.6673969E0,-2.7508864E-1,3.848121E-1,-1.4388632E0,7.4389094E-1,-5.644371E-1,2.1824148E0],"categories":[],"categories_nodes":[],"categories_segments":[],"categories_sizes":[],"default_left":[0,0,0,0,0,0,0,0,0,0,0,0,0,0,0],"id":12,"left_children":[1,3,5,7,9,11,13,-1,-1,-1,-1,-1,-1,-1,-1],"loss_changes":[1.3046401E3,1.0536177E3,4.5937622E2,7.3656055E2,8.79936E2,2.0252626E2,5.7671265E2,0E0,0E0,0E0,0E0,0E0,0E0,0E0,0E0],"parents":[2147483647,0,0,1,1,2,2,3,3,4,4,5,5,6,6],"right_children":[2,4,6,8,10,12,14,-1,-1,-1,-1,-1,-1,-1,-1],"split_conditions":[1.611529E0,-2.4646862E-1,-7.0127636E-1,1.6623688E0,-7.1276146E-1,1.6267618E0,-3.8929597E-1,6.056382E-1,1.6673969E0,-2.7508864E-1,3.848121E-1,-1.4388632E0,7.4389094E-1,-5.644371E-1,2.1824148E0],"split_indices":[9,3,7,11,10,9,11,0,0,0,0,0,0,0,0],"split_type":[0,0,0,0,0,0,0,0,0,0,0,0,0,0,0],"sum_hessian":[7.38E2,6.92E2,4.6E1,2.63E2,4.29E2,1.4E1,3.2E1,2.34E2,2.9E1,1.07E2,3.22E2,1E0,1.3E1,3E0,2.9E1],"tree_param":{"num_deleted":"0","num_feature":"12","num_nodes":"15","size_leaf_vector":"0"}},{"base_weights":[1.9405121E0,-1.2385646E0,2.4057395E0,-3.049366E0,-3.0822985E-2,3.4853528E0,8.740251E-1,-6.594526E-1,6.122822E-1,4.6819672E-2,-9.9314946E-1,6.2270886E-1,1.767959E0,-2.8460917E-1,4.3707275E-1],"categories":[],"categories_nodes":[],"categories_segments":[],"categories_sizes":[],"default_left":[0,0,0,0,0,0,0,0,0,0,0,0,0,0,0],"id":13,"left_children":[1,3,5,7,9,11,13,-1,-1,-1,-1,-1,-1,-1,-1],"loss_changes":[1.0959563E3,2.0766914E2,1.0635637E3,6.7658295E1,7.698975E1,7.250093E2,8.1038965E2,0E0,0E0,0E0,0E0,0E0,0E0,0E0,0E0],"parents":[2147483647,0,0,1,1,2,2,3,3,4,4,5,5,6,6],"right_children":[2,4,6,8,10,12,14,-1,-1,-1,-1,-1,-1,-1,-1],"split_conditions":[-9.4357127E-1,-6.643859E-1,-4.154E-2,2.2784958E0,1.7845718E0,1.8661345E0,-6.288557E-1,-6.594526E-1,6.122822E-1,4.6819672E-2,-9.9314946E-1,6.2270886E-1,1.767959E0,-2.8460917E-1,4.3707275E-1],"split_indices":[7,4,8,0,11,9,1,0,0,0,0,0,0,0,0],"split_type":[0,0,0,0,0,0,0,0,0,0,0,0,0,0,0],"sum_hessian":[7.38E2,9.4E1,6.44E2,3.7E1,5.7E1,3.77E2,2.67E2,3.6E1,1E0,5.5E1,2E0,3.54E2,2.3E1,9.7E1,1.7E2],"tree_param":{"num_deleted":"0","num_feature":"12","num_nodes":"15","size_leaf_vector":"0"}},{"base_weights":[1.5545071E0,1.1484127E0,4.6655345E0,2.3009486E0,9.333365E-2,2.5862849E0,6.1403646E0,1.1783837E0,3.6553082E-1,7.505106E-2,-1.0670006E0,1.2796568E0,3.8606742E-1,1.3426493E0,-4.872925E-2],"categories":[],"categories_nodes":[],"categories_segments":[],"categories_sizes":[],"default_left":[0,0,0,0,0,0,0,0,0,0,0,0,0,0,0],"id":14,"left_children":[1,3,5,7,9,11,13,-1,-1,-1,-1,-1,-1,-1,-1],"loss_changes":[9.2827295E2,7.96276E2,2.4477515E2,5.2120215E2,5.269174E2,8.016661E1,1.8084265E2,0E0,0E0,0E0,0E0,0E0,0E0,0E0,0E0],"parents":[2147483647,0,0,1,1,2,2,3,3,4,4,5,5,6,6],"right_children":[2,4,6,8,10,12,14,-1,-1,-1,-1,-1,-1,-1,-1],"split_conditions":[1.9639678E0,-2.651825E-1,-4.718143E-2,-1.4477327E0,1.8137399E0,-1.9556724E0,2.086937E0,1.1783837E0,3.6553082E-1,7.505106E-2,-1.0670006E0,1.2796568E0,3.8606742E-1,1.3426493E0,-4.872925E-2],"split_indices":[7,8,4,3,2,11,10,0,0,0,0,0,0,0,0],"split_type":[0,0,0,0,0,0,0,0,0,0,0,0,0,0,0],"sum_hessian":[7.38E2,6.54E2,8.4E1,3.12E2,3.42E2,3.6E1,4.8E1,3.5E1,2.77E2,3.26E2,1.6E1,4E0,3.2E1,4.4E1,4E0],"tree_param":{"num_deleted":"0","num_feature":"12","num_nodes":"15","size_leaf_vector":"0"}},{"base_weights":[1.2483577E0,-2.7631757E-1,1.9422086E0,1.1432382E0,-4.6070358E-1,2.342437E-1,2.8627648E0,-2.3093107E-1,1.1629476E-1,3.2445058E-1,-3.7998855E-1,2.2989173E0,5.169885E-1],"categories":[],"categories_nodes":[],"categories_segments":[],"categories_sizes":[],"default_left":[0,0,0,0,0,0,0,0,0,0,0,0,0],"id":15,"left_children":[1,3,5,-1,7,9,11,-1,-1,-1,-1,-1,-1],"loss_changes":[7.823229E2,2.5897833E2,7.980465E2,0E0,1.6411928E2,5.3332855E2,7.616643E2,0E0,0E0,0E0,0E0,0E0,0E0],"parents":[2147483647,0,0,1,1,2,2,4,4,5,5,6,6],"right_children":[2,4,6,-1,8,10,12,-1,-1,-1,-1,-1,-1],"split_conditions":[-2.1668652E-1,-1.3276722E0,-6.055136E-1,1.1432382E0,-4.718143E-2,2.0491618E-1,-1.7728077E0,-2.3093107E-1,1.1629476E-1,3.2445058E-1,-3.7998855E-1,2.2989173E0,5.169885E-1],"split_indices":[7,8,11,0,4,4,5,0,0,0,0,0,0],"split_type":[0,0,0,0,0,0,0,0,0,0,0,0,0],"sum_hessian":[7.38E2,2.31E2,5.07E2,6E0,2.25E2,1.78E2,3.29E2,1.35E2,9E1,1.08E2,7E1,9E0,3.2E2],"tree_param":{"num_deleted":"0","num_feature":"12","num_nodes":"13","size_leaf_vector":"0"}},{"base_weights":[1.0038136E0,-2.332113E0,1.2440926E0,-3.7665837E0,-1.6696358E0,-1.1405575E0,1.5900381E0,-2.4241088E-1,-9.8452866E-1,-5.2207154E-1,-2.4148428E-1,-1.4012628E0,-1.8453516E-1,3.501613E-1,-8.835163E-1],"categories":[],"categories_nodes":[],"categories_segments":[],"categories_sizes":[],"default_left":[0,0,0,0,0,0,0,0,0,0,0,0,0,0,0],"id":16,"left_children":[1,3,5,7,9,11,13,-1,-1,-1,-1,-1,-1,-1,-1],"loss_changes":[5.95249E2,4.122638E1,5.710353E2,3.83313E1,1.2501549E1,1.0600305E2,5.901333E2,0E0,0E0,0E0,0E0,0E0,0E0,0E0,0E0],"parents":[2147483647,0,0,1,1,2,2,3,3,4,4,5,5,6,6],"right_children":[2,4,6,8,10,12,14,-1,-1,-1,-1,-1,-1,-1,-1],"split_conditions":[-1.245711E0,-1.6700535E0,-9.4357127E-1,-7.0127636E-1,1.9301823E-1,-1.0820255E0,1.8753463E0,-2.4241088E-1,-9.8452866E-1,-5.2207154E-1,-2.4148428E-1,-1.4012628E0,-1.8453516E-1,3.501613E-1,-8.835163E-1],"split_indices":[9,9,7,7,3,7,2,0,0,0,0,0,0,0,0],"split_type":[0,0,0,0,0,0,0,0,0,0,0,0,0,0,0],"sum_hessian":[7.38E2,4.9E1,6.89E2,1.4E1,3.5E1,8.7E1,6.02E2,5E0,9E0,1E1,2.5E1,2E0,8.5E1,5.87E2,1.5E1],"tree_param":{"num_deleted":"0","num_feature":"12","num_nodes":"15","size_leaf_vector":"0"}},{"base_weights":[7.974895E-1,7.0496666E-1,8.223789E0,-1.2361953E0,1.1750536E0,4.186306E-1,1.745695E0,2.707509E0,-3.0835256E-1,3.6531456E-2,5.058799E-1],"categories":[],"categories_nodes":[],"categories_segments":[],"categories_sizes":[],"default_left":[0,0,0,0,0,0,0,0,0,0,0],"id":17,"left_children":[1,3,5,7,9,-1,-1,-1,-1,-1,-1],"loss_changes":[5.0197104E2,6.68501E2,9.576355E0,6.664274E2,7.911821E2,0E0,0E0,0E0,0E0,0E0,0E0],"parents":[2147483647,0,0,1,1,2,2,3,3,4,4],"right_children":[2,4,6,8,10,-1,-1,-1,-1,-1,-1],"split_conditions":[2.5054688E0,-7.1276146E-1,-9.4357127E-1,-1.7045883E0,-2.7586368E-1,4.186306E-1,1.745695E0,2.707509E0,-3.0835256E-1,3.6531456E-2,5.058799E-1],"split_indices":[0,10,7,3,1,0,0,0,0,0,0],"split_type":[0,0,0,0,0,0,0,0,0,0,0],"sum_hessian":[7.38E2,7.3E2,8E0,1.42E2,5.88E2,1E0,7E0,2E0,1.4E2,3.4E2,2.48E2],"tree_param":{"num_deleted":"0","num_feature":"12","num_nodes":"11","size_leaf_vector":"0"}},{"base_weights":[6.449007E-1,-5.8699636E0,7.423199E-1,-7.6724796E0,-7.9744005E-1,5.422683E0,4.6991867E-1,-1.6237888E0,-4.547226E-1,-6.2927E-1,2.0686264E-1,1.3224875E0,-3.25779E-2,7.5225696E-2,1.3620081E0],"categories":[],"categories_nodes":[],"categories_segments":[],"categories_sizes":[],"default_left":[0,0,0,0,0,0,0,0,0,0,0,0,0,0,0],"id":18,"left_children":[1,3,5,7,9,11,13,-1,-1,-1,-1,-1,-1,-1,-1],"loss_changes":[4.7338074E2,9.445804E1,9.268805E2,8.2388306E-1,2.0464806E1,2.668955E2,4.0774112E2,0E0,0E0,0E0,0E0,0E0,0E0,0E0,0E0],"parents":[2147483647,0,0,1,1,2,2,3,3,4,4,5,5,6,6],"right_children":[2,4,6,8,10,12,14,-1,-1,-1,-1,-1,-1,-1,-1],"split_conditions":[-2.111846E0,3.6152017E-1,-1.4477327E0,1.9293542E0,-9.4357127E-1,3.021455E0,2.3919823E0,-1.6237888E0,-4.547226E-1,-6.2927E-1,2.0686264E-1,1.3224875E0,-3.25779E-2,7.5225696E-2,1.3620081E0],"split_indices":[3,0,3,7,7,4,0,0,0,0,0,0,0,0,0],"split_type":[0,0,0,0,0,0,0,0,0,0,0,0,0,0,0],"sum_hessian":[7.38E2,1E1,7.28E2,7E0,3E0,3.9E1,6.89E2,6E0,1E0,1E0,2E0,3.2E1,7E0,6.8E2,9E0],"tree_param":{"num_deleted":"0","num_feature":"12","num_nodes":"15","size_leaf_vector":"0"}},{"base_weights":[5.162266E-1,1.6669108E-1,2.2318115E0,-2.2844002E-2,4.29519E0,3.0105639E0,4.3736878E-1,-1.1529865E0,1.3228667E-2,9.1408804E-2,1.4670475E0,6.7329687E-1,-4.7108933E-1,9.241133E-1,-1.5824333E-1],"categories":[],"categories_nodes":[],"categories_segments":[],"categories_sizes":[],"default_left":[0,0,0,0,0,0,0,0,0,0,0,0,0,0,0],"id":19,"left_children":[1,3,5,7,9,11,13,-1,-1,-1,-1,-1,-1,-1,-1],"loss_changes":[4.427751E2,4.8133273E2,1.7336157E2,3.013445E2,3.1168744E2,1.7408862E2,2.0409308E2,0E0,0E0,0E0,0E0,0E0,0E0,0E0,0E0],"parents":[2147483647,0,0,1,1,2,2,3,3,4,4,5,5,6,6],"right_children":[2,4,6,8,10,12,14,-1,-1,-1,-1,-1,-1,-1,-1],"split_conditions":[1.9293542E0,1.8661345E0,5.8074325E-1,-2.111846E0,4.6744543E-1,2.1542428E0,-1.9556724E0,-1.1529865E0,1.3228667E-2,9.1408804E-2,1.4670475E0,6.7329687E-1,-4.7108933E-1,9.241133E-1,-1.5824333E-1],"split_indices":[7,9,3,3,4,10,11,0,0,0,0,0,0,0,0],"split_type":[0,0,0,0,0,0,0,0,0,0,0,0,0,0,0],"sum_hessian":[7.38E2,6.14E2,1.24E2,5.88E2,2.6E1,8.6E1,3.8E1,8E0,5.8E2,1.2E1,1.4E1,8.1E1,5E0,8E0,3E1],"tree_param":{"num_deleted":"0","num_feature":"12","num_nodes":"15","size_leaf_vector":"0"}},{"base_weights":[4.1485736E-1,-1.3874478E0,6.7967E-1,-4.735838E-1,-2.2724068E0,-7.429215E-1,1.047165E0,-1.2081004E0,-2.004572E-2,-5.3018373E-1,6.4658575E-2,-4.742209E-1,-4.9134597E-2,-1.0496668E-1,3.025889E-1],"categories":[],"categories_nodes":[],"categories_segments":[],"categories_sizes":[],"default_left":[0,0,0,0,0,0,0,0,0,0,0,0,0,0,0],"id":20,"left_children":[1,3,5,7,9,11,13,-1,-1,-1,-1,-1,-1,-1,-1],"loss_changes":[3.5364786E2,7.575337E1,3.37981E2,9.915958E1,4.801715E1,1.0709581E2,3.7641498E2,0E0,0E0,0E0,0E0,0E0,0E0,0E0,0E0],"parents":[2147483647,0,0,1,1,2,2,3,3,4,4,5,5,6,6],"right_children":[2,4,6,8,10,12,14,-1,-1,-1,-1,-1,-1,-1,-1],"split_conditions":[-9.4357127E-1,-6.544855E-1,-7.974311E-1,-1.0820255E0,1.611529E0,-1.4448255E0,-7.1276146E-1,-1.2081004E0,-2.004572E-2,-5.3018373E-1,6.4658575E-2,-4.742209E-1,-4.9134597E-2,-1.0496668E-1,3.025889E-1],"split_indices":[7,1,9,7,9,9,10,0,0,0,0,0,0,0,0],"split_type":[0,0,0,0,0,0,0,0,0,0,0,0,0,0,0],"sum_hessian":[7.38E2,9.4E1,6.44E2,4.7E1,4.7E1,1.32E2,5.12E2,2E0,4.5E1,4.1E1,6E0,3E1,1.02E2,1.17E2,3.95E2],"tree_param":{"num_deleted":"0","num_feature":"12","num_nodes":"15","size_leaf_vector":"0"}},{"base_weights":[3.2915288E-1,5.806241E-1,-1.2118554E0,3.1876948E0,3.8147074E-1,-2.4608467E0,2.4029467E-1,-1.1454155E-1,1.0564296E0,9.7365536E-2,-1.159797E0,-7.6072717E-1,-1.530361E-1,1.9215572E-1,-2.9137084E-1],"categories":[],"categories_nodes":[],"categories_segments":[],"categories_sizes":[],"default_left":[0,0,0,0,0,0,0,0,0,0,0,0,0,0,0],"id":21,"left_children":[1,3,5,7,9,11,13,-1,-1,-1,-1,-1,-1,-1,-1],"loss_changes":[2.8708038E2,3.2899957E2,1.8921846E2,3.5744464E2,3.8830612E2,1.245972E2,6.1315372E1,0E0,0E0,0E0,0E0,0E0,0E0,0E0,0E0],"parents":[2147483647,0,0,1,1,2,2,3,3,4,4,5,5,6,6],"right_children":[2,4,6,8,10,12,14,-1,-1,-1,-1,-1,-1,-1,-1],"split_conditions":[1.1607124E0,-1.4477327E0,5.5952135E-2,-1.8432708E0,1.7474145E0,3.7331912E-1,-6.615395E-1,-1.1454155E-1,1.0564296E0,9.7365536E-2,-1.159797E0,-7.6072717E-1,-1.530361E-1,1.9215572E-1,-2.9137084E-1],"split_indices":[2,3,11,3,11,9,3,0,0,0,0,0,0,0,0],"split_type":[0,0,0,0,0,0,0,0,0,0,0,0,0,0,0],"sum_hessian":[7.38E2,6.35E2,1.03E2,4.4E1,5.91E2,5.5E1,4.8E1,1.6E1,2.8E1,5.82E2,9E0,3E1,2.5E1,3.4E1,1.4E1],"tree_param":{"num_deleted":"0","num_feature":"12","num_nodes":"15","size_leaf_vector":"0"}},{"base_weights":[2.6178786E-1,-6.1209816E-1,6.603701E-1,4.5516315E0,-7.4588794E-1,-5.8511114E-1,1.1311208E0,-2.538208E-1,1.19392E0,-8.6757414E-2,-5.410356E-1,2.813472E-1,-4.466147E-1,1.6031564E0,1.834039E-1],"categories":[],"categories_nodes":[],"categories_segments":[],"categories_sizes":[],"default_left":[0,0,0,0,0,0,0,0,0,0,0,0,0,0,0],"id":22,"left_children":[1,3,5,7,9,11,13,-1,-1,-1,-1,-1,-1,-1,-1],"loss_changes":[2.5780933E2,1.6367319E2,2.985079E2,5.709774E1,1.3763614E2,4.6268982E2,5.3656116E2,0E0,0E0,0E0,0E0,0E0,0E0,0E0,0E0],"parents":[2147483647,0,0,1,1,2,2,3,3,4,4,5,5,6,6],"right_children":[2,4,6,8,10,12,14,-1,-1,-1,-1,-1,-1,-1,-1],"split_conditions":[-2.1668652E-1,-2.111375E0,-8.649747E-1,-9.4357127E-1,1.2444485E0,-3.7163254E-3,-1.7728077E0,-2.538208E-1,1.19392E0,-8.6757414E-2,-5.410356E-1,2.813472E-1,-4.466147E-1,1.6031564E0,1.834039E-1],"split_indices":[7,6,11,7,1,4,5,0,0,0,0,0,0,0,0],"split_type":[0,0,0,0,0,0,0,0,0,0,0,0,0,0,0],"sum_hessian":[7.38E2,2.31E2,5.07E2,5E0,2.26E2,1.39E2,3.68E2,1E0,4E0,1.96E2,3E1,6.3E1,7.6E1,1E1,3.58E2],"tree_param":{"num_deleted":"0","num_feature":"12","num_nodes":"15","size_leaf_vector":"0"}},{"base_weights":[2.1204732E-1,1.481946E-1,5.374747E0,-3.6877134E-1,8.1332517E-1,1.987175E0,3.5626216E0,-1.2445519E-1,2.5760362E-1,-2.5809646E-1,2.8367773E-1,1.7730026E-1,7.636563E-1],"categories":[],"categories_nodes":[],"categories_segments":[],"categories_sizes":[],"default_left":[0,0,0,0,0,0,0,0,0,0,0,0,0],"id":23,"left_children":[1,3,5,7,9,-1,11,-1,-1,-1,-1,-1,-1],"loss_changes":[2.4281665E2,2.5165417E2,3.8990234E1,1.7384302E2,4.0917026E2,0E0,2.0885086E0,0E0,0E0,0E0,0E0,0E0,0E0],"parents":[2147483647,0,0,1,1,2,2,3,3,4,4,6,6],"right_children":[2,4,6,8,10,-1,12,-1,-1,-1,-1,-1,-1],"split_conditions":[2.5054688E0,-2.4615644E-1,7.787125E-1,1.9639678E0,-7.1276146E-1,1.987175E0,-9.2327833E-1,-1.2445519E-1,2.5760362E-1,-2.5809646E-1,2.8367773E-1,1.7730026E-1,7.636563E-1],"split_indices":[0,1,5,7,10,0,3,0,0,0,0,0,0],"split_type":[0,0,0,0,0,0,0,0,0,0,0,0,0],"sum_hessian":[7.38E2,7.3E2,8E0,4.11E2,3.19E2,1E0,7E0,3.57E2,5.4E1,7.1E1,2.48E2,1E0,6E0],"tree_param":{"num_deleted":"0","num_feature":"12","num_nodes":"13","size_leaf_vector":"0"}},{"base_weights":[1.7381498E-1,3.789456E-1,-1.1717736E0,-1.1500628E-1,1.2349176E0,-4.0460987E0,-5.615869E-1,-4.427444E-2,9.250291E-1,1.2969596E0,2.09059E-1,-3.727887E-1,-1.2536061E0,-4.5531154E-1,1.2797074E-1],"categories":[],"categories_nodes":[],"categories_segments":[],"categories_sizes":[],"default_left":[0,0,0,0,0,0,0,0,0,0,0,0,0,0,0],"id":24,"left_children":[1,3,5,7,9,11,13,-1,-1,-1,-1,-1,-1,-1,-1],"loss_changes":[2.0442386E2,2.715854E2,1.6960748E2,2.0673358E2,2.2716309E2,7.074295E1,1.7041235E2,0E0,0E0,0E0,0E0,0E0,0E0,0E0,0E0],"parents":[2147483647,0,0,1,1,2,2,3,3,4,4,5,5,6,6],"right_children":[2,4,6,8,10,12,14,-1,-1,-1,-1,-1,-1,-1,-1],"split_conditions":[1.2294695E0,-2.4615644E-1,-7.1276146E-1,2.5054688E0,-1.7433671E0,-8.7676394E-1,1.0697E0,-4.427444E-2,9.250291E-1,1.2969596E0,2.09059E-1,-3.727887E-1,-1.2536061E0,-4.5531154E-1,1.2797074E-1],"split_indices":[8,1,10,0,5,10,1,0,0,0,0,0,0,0,0],"split_type":[0,0,0,0,0,0,0,0,0,0,0,0,0,0,0],"sum_hessian":[7.38E2,6.41E2,9.7E1,4.07E2,2.34E2,1.6E1,8.1E1,3.99E2,8E0,7E0,2.27E2,9E0,7E0,3.3E1,4.8E1],"tree_param":{"num_deleted":"0","num_feature":"12","num_nodes":"15","size_leaf_vector":"0"}},{"base_weights":[1.3963743E-1,-4.104052E0,2.034796E-1,-5.432223E0,-4.2169714E-1,3.0550745E0,3.7874863E-2,-1.7323446E-1,-1.1921554E0,-4.2717E-1,1.7232743E-1,3.6131552E-1,1.7365525E0,1.6657805E-2,-1.5542954E0],"categories":[],"categories_nodes":[],"categories_segments":[],"categories_sizes":[],"default_left":[0,0,0,0,0,0,0,0,0,0,0,0,0,0,0],"id":25,"left_children":[1,3,5,7,9,11,13,-1,-1,-1,-1,-1,-1,-1,-1],"loss_changes":[2.0104967E2,5.1508026E1,3.441455E2,1.4144165E1,1.0639651E1,2.6535992E2,2.4535938E2,0E0,0E0,0E0,0E0,0E0,0E0,0E0,0E0],"parents":[2147483647,0,0,1,1,2,2,3,3,4,4,5,5,6,6],"right_children":[2,4,6,8,10,12,14,-1,-1,-1,-1,-1,-1,-1,-1],"split_conditions":[-2.111846E0,3.6152017E-1,-1.4477327E0,-9.4357127E-1,-9.4357127E-1,1.215415E0,1.801709E0,-1.7323446E-1,-1.1921554E0,-4.2717E-1,1.7232743E-1,3.6131552E-1,1.7365525E0,1.6657805E-2,-1.5542954E0],"split_indices":[3,0,3,7,7,5,11,0,0,0,0,0,0,0,0],"split_type":[0,0,0,0,0,0,0,0,0,0,0,0,0,0,0],"sum_hessian":[7.38E2,1E1,7.28E2,7E0,3E0,3.9E1,6.89E2,1E0,6E0,1E0,2E0,3.3E1,6E0,6.86E2,3E0],"tree_param":{"num_deleted":"0","num_feature":"12","num_nodes":"15","size_leaf_vector":"0"}},{"base_weights":[1.1027545E-1,7.7740066E-3,2.4510252E0,-2.039552E-1,1.0383586E0,-1.9301441E-1,4.3713326E0,-5.9346683E-2,5.511322E-1,-2.883929E-1,2.7527264E-1,1.7096105E-1,-3.4651497E-1,3.6499825E-1,1.3429794E0],"categories":[],"categories_nodes":[],"categories_segments":[],"categories_sizes":[],"default_left":[0,0,0,0,0,0,0,0,0,0,0,0,0,0,0],"id":26,"left_children":[1,3,5,7,9,11,13,-1,-1,-1,-1,-1,-1,-1,-1],"loss_changes":[1.7728938E2,1.5491904E2,1.5824219E2,1.6254996E2,1.03426285E2,2.4065556E1,9.5160645E1,0E0,0E0,0E0,0E0,0E0,0E0,0E0,0E0],"parents":[2147483647,0,0,1,1,2,2,3,3,4,4,5,5,6,6],"right_children":[2,4,6,8,10,12,14,-1,-1,-1,-1,-1,-1,-1,-1],"split_conditions":[1.8661345E0,1.9293542E0,4.6744543E-1,2.3163247E0,-2.0933545E0,7.816425E-1,-1.1773691E0,-5.9346683E-2,5.511322E-1,-2.883929E-1,2.7527264E-1,1.7096105E-1,-3.4651497E-1,3.6499825E-1,1.3429794E0],"split_indices":[9,7,4,0,6,11,8,0,0,0,0,0,0,0,0],"split_type":[0,0,0,0,0,0,0,0,0,0,0,0,0,0,0],"sum_hessian":[7.38E2,7.08E2,3E1,5.88E2,1.2E2,1.3E1,1.7E1,5.71E2,1.7E1,1.4E1,1.06E2,8E0,5E0,9E0,8E0],"tree_param":{"num_deleted":"0","num_feature":"12","num_nodes":"15","size_leaf_vector":"0"}},{"base_weights":[9.094142E-2,-1.1399097E0,2.720886E-1,-6.921706E-1,-2.6846967E0,4.266838E-1,-1.3301688E0,-1.0202454E0,-1.0029894E-1,-5.9969705E-1,3.9505895E-2,2.0104483E-1,-2.1603685E-2,-6.17346E-1,-1.0129241E-1],"categories":[],"categories_nodes":[],"categories_segments":[],"categories_sizes":[],"default_left":[0,0,0,0,0,0,0,0,0,0,0,0,0,0,0],"id":27,"left_children":[1,3,5,7,9,11,13,-1,-1,-1,-1,-1,-1,-1,-1],"loss_changes":[1.6508142E2,6.384958E1,1.6033493E2,6.049431E1,1.9584885E1,1.8231384E2,8.090949E1,0E0,0E0,0E0,0E0,0E0,0E0,0E0,0E0],"parents":[2147483647,0,0,1,1,2,2,3,3,4,4,5,5,6,6],"right_children":[2,4,6,8,10,12,14,-1,-1,-1,-1,-1,-1,-1,-1],"split_conditions":[-9.4357127E-1,5.652593E-1,1.5811758E0,-1.0820255E0,1.4853142E0,2.2720054E-1,-5.5642015E-1,-1.0202454E0,-1.0029894E-1,-5.9969705E-1,3.9505895E-2,2.0104483E-1,-2.1603685E-2,-6.17346E-1,-1.0129241E-1],"split_indices":[7,1,2,7,9,3,10,0,0,0,0,0,0,0,0],"split_type":[0,0,0,0,0,0,0,0,0,0,0,0,0,0,0],"sum_hessian":[7.38E2,9.4E1,6.44E2,7.4E1,2E1,5.88E2,5.6E1,2E0,7.2E1,1.8E1,2E0,2.82E2,3.06E2,1.7E1,3.9E1],"tree_param":{"num_deleted":"0","num_feature":"12","num_nodes":"15","size_leaf_vector":"0"}},{"base_weights":[6.9749E-2,-1.9699714E0,1.739538E-1,-6.878841E-1,-2.8529916E0,-3.2678068E0,2.2825556E-1,-3.2965502E-1,1.0635605E-2,-6.5940595E-1,-2.83144E-2,-8.4708065E-1,-1.0313254E-1,4.4700882E-1,2.1071019E-2],"categories":[],"categories_nodes":[],"categories_segments":[],"categories_sizes":[],"default_left":[0,0,0,0,0,0,0,0,0,0,0,0,0,0,0],"id":28,"left_children":[1,3,5,7,9,11,13,-1,-1,-1,-1,-1,-1,-1,-1],"loss_changes":[1.5741614E2,3.8793396E1,1.32319E2,1.1475E1,2.481668E1,2.7108574E1,1.7092935E2,0E0,0E0,0E0,0E0,0E0,0E0,0E0,0E0],"parents":[2147483647,0,0,1,1,2,2,3,3,4,4,5,5,6,6],"right_children":[2,4,6,8,10,12,14,-1,-1,-1,-1,-1,-1,-1,-1],"split_conditions":[-1.4448255E0,-7.0127636E-1,-2.111846E0,-4.4517952E-1,-8.29001E-1,3.6152017E-1,-1.4477327E0,-3.2965502E-1,1.0635605E-2,-6.5940595E-1,-2.83144E-2,-8.4708065E-1,-1.0313254E-1,4.4700882E-1,2.1071019E-2],"split_indices":[9,7,3,0,1,0,3,0,0,0,0,0,0,0,0],"split_type":[0,0,0,0,0,0,0,0,0,0,0,0,0,0,0],"sum_hessian":[7.38E2,3.5E1,7.03E2,1.5E1,2E1,1E1,6.93E2,6E0,9E0,1.7E1,3E0,7E0,3E0,3.9E1,6.54E2],"tree_param":{"num_deleted":"0","num_feature":"12","num_nodes":"15","size_leaf_vector":"0"}},{"base_weights":[5.3783935E-2,-9.6459603E-1,2.036945E-1,-1.6646116E0,-2.734669E-1,1.1167484E-1,2.390175E0,-5.284463E-1,-1.6851768E-1,8.176212E-2,-4.0167227E-1,3.1695783E-2,-6.977294E-1,-3.679892E-2,8.580332E-1],"categories":[],"categories_nodes":[],"categories_segments":[],"categories_sizes":[],"default_left":[0,0,0,0,0,0,0,0,0,0,0,0,0,0,0],"id":29,"left_children":[1,3,5,7,9,11,13,-1,-1,-1,-1,-1,-1,-1,-1],"loss_changes":[1.13016594E2,4.5505905E1,1.2950656E2,3.5544113E1,5.882133E1,1.0502892E2,1.2795273E2,0E0,0E0,0E0,0E0,0E0,0E0,0E0,0E0],"parents":[2147483647,0,0,1,1,2,2,3,3,4,4,5,5,6,6],"right_children":[2,4,6,8,10,12,14,-1,-1,-1,-1,-1,-1,-1,-1],"split_conditions":[-9.4357127E-1,-5.0481606E-1,1.8661345E0,5.7786E-4,-3.7966732E-2,2.7780504E0,4.6744543E-1,-5.284463E-1,-1.6851768E-1,8.176212E-2,-4.0167227E-1,3.1695783E-2,-6.977294E-1,-3.679892E-2,8.580332E-1],"split_indices":[7,2,9,10,9,4,4,0,0,0,0,0,0,0,0],"split_type":[0,0,0,0,0,0,0,0,0,0,0,0,0,0,0],"sum_hessian":[7.38E2,9.4E1,6.44E2,4.6E1,4.8E1,6.19E2,2.5E1,2E1,2.6E1,3.5E1,1.3E1,6.12E2,7E0,1.1E1,1.4E1],"tree_param":{"num_deleted":"0","num_feature":"12","num_nodes":"15","size_leaf_vector":"0"}},{"base_weights":[4.1860897E-2,-1.4998199E0,1.3222864E-1,-3.7363036E0,-1.2249316E0,-5.076232E-1,3.7554064E-1,-6.482277E-2,-9.5313245E-1,-1.6217498E-1,-2.9784116E-1,-2.9521972E-1,2.6817624E-2,9.866362E-2,-4.030571E-1],"categories":[],"categories_nodes":[],"categories_segments":[],"categories_sizes":[],"default_left":[0,0,0,0,0,0,0,0,0,0,0,0,0,0,0],"id":30,"left_children":[1,3,5,7,9,11,13,-1,-1,-1,-1,-1,-1,-1,-1],"loss_changes":[1.0315448E2,2.0629387E1,1.0901349E2,1.2504845E1,2.9505692E0,1.2014389E2,1.43758E2,0E0,0E0,0E0,0E0,0E0,0E0,0E0,0E0],"parents":[2147483647,0,0,1,1,2,2,3,3,4,4,5,5,6,6],"right_children":[2,4,6,8,10,12,14,-1,-1,-1,-1,-1,-1,-1,-1],"split_conditions":[-1.3762779E0,-1.9203068E0,-7.6029366E-1,-7.0127636E-1,-7.0127636E-1,-5.1721376E-1,1.740862E0,-6.482277E-2,-9.5313245E-1,-1.6217498E-1,-2.9784116E-1,-2.9521972E-1,2.6817624E-2,9.866362E-2,-4.030571E-1],"split_indices":[9,9,0,7,7,10,10,0,0,0,0,0,0,0,0],"split_type":[0,0,0,0,0,0,0,0,0,0,0,0,0,0,0],"sum_hessian":[7.38E2,4E1,6.98E2,3E0,3.7E1,1.92E2,5.06E2,1E0,2E0,1.6E1,2.1E1,7.6E1,1.16E2,4.83E2,2.3E1],"tree_param":{"num_deleted":"0","num_feature":"12","num_nodes":"15","size_leaf_vector":"0"}},{"base_weights":[3.0713899E-2,3.1814635E-1,-4.8765188E-1,2.145632E-1,3.9907956E0,-2.9716086E-1,-3.629992E0,-1.6584507E-1,9.359189E-2,1.1451153E0,1.4006081E-2,1.700494E-2,-3.5802022E-1,-2.583769E-1,-7.780651E-1],"categories":[],"categories_nodes":[],"categories_segments":[],"categories_sizes":[],"default_left":[0,0,0,0,0,0,0,0,0,0,0,0,0,0,0],"id":31,"left_children":[1,3,5,7,9,11,13,-1,-1,-1,-1,-1,-1,-1,-1],"loss_changes":[1.1026256E2,1.8022583E2,1.5694843E2,1.23112366E2,8.802074E1,1.4279724E2,4.104477E0,0E0,0E0,0E0,0E0,0E0,0E0,0E0,0E0],"parents":[2147483647,0,0,1,1,2,2,3,3,4,4,5,5,6,6],"right_children":[2,4,6,8,10,12,14,-1,-1,-1,-1,-1,-1,-1,-1],"split_conditions":[5.1530856E-1,4.3717757E-1,8.670343E-1,-9.49517E-1,-1.0672211E-2,7.741323E-1,-9.4357127E-1,-1.6584507E-1,9.359189E-2,1.1451153E0,1.4006081E-2,1.700494E-2,-3.5802022E-1,-2.583769E-1,-7.780651E-1],"split_indices":[3,3,5,4,6,2,7,0,0,0,0,0,0,0,0],"split_type":[0,0,0,0,0,0,0,0,0,0,0,0,0,0,0],"sum_hessian":[7.38E2,4.75E2,2.63E2,4.63E2,1.2E1,2.49E2,1.4E1,9E1,3.73E2,8E0,4E0,1.99E2,5E1,2E0,1.2E1],"tree_param":{"num_deleted":"0","num_feature":"12","num_nodes":"15","size_leaf_vector":"0"}},{"base_weights":[2.41775E-2,-1.6888099E-2,3.3569303E0,-4.964035E-2,3.3777218E0,1.5945686E0,1.7833357E0,1.52660925E-2,-2.5758517E-1,1.7090158E0,-7.9647444E-2,-3.4318924E-2,4.17425E-1],"categories":[],"categories_nodes":[],"categories_segments":[],"categories_sizes":[],"default_left":[0,0,0,0,0,0,0,0,0,0,0,0,0],"id":32,"left_children":[1,3,5,7,9,-1,11,-1,-1,-1,-1,-1,-1],"loss_changes":[1.0119733E2,8.144106E1,5.1153915E1,1.13189476E2,1.399851E2,0E0,5.109234E0,0E0,0E0,0E0,0E0,0E0,0E0],"parents":[2147483647,0,0,1,1,2,2,3,3,4,4,6,6],"right_children":[2,4,6,8,10,-1,12,-1,-1,-1,-1,-1,-1],"split_conditions":[2.5054688E0,1.9218299E0,7.787125E-1,1.4413464E0,-3.7163254E-3,1.5945686E0,-9.2327833E-1,1.52660925E-2,-2.5758517E-1,1.7090158E0,-7.9647444E-2,-3.4318924E-2,4.17425E-1],"split_indices":[0,11,5,11,4,0,3,0,0,0,0,0,0],"split_type":[0,0,0,0,0,0,0,0,0,0,0,0,0],"sum_hessian":[7.38E2,7.3E2,8E0,7.24E2,6E0,1E0,7E0,6.58E2,6.6E1,2E0,4E0,1E0,6E0],"tree_param":{"num_deleted":"0","num_feature":"12","num_nodes":"13","size_leaf_vector":"0"}},{"base_weights":[2.389469E-2,-5.866278E-1,2.0178886E-1,-8.759129E-1,4.903795E-1,2.6407927E-1,-2.732295E0,4.6989895E-2,-2.152758E-1,-3.9124947E-2,9.5654625E-1,-6.186903E-1,6.486332E-2,4.890318E-2,-7.503468E-1],"categories":[],"categories_nodes":[],"categories_segments":[],"categories_sizes":[],"default_left":[0,0,0,0,0,0,0,0,0,0,0,0,0,0,0],"id":33,"left_children":[1,3,5,7,9,11,13,-1,-1,-1,-1,-1,-1,-1,-1],"loss_changes":[8.0379974E1,5.246041E1,1.0544608E2,2.9647987E1,1.06940186E2,1.1466697E2,3.7333466E1,0E0,0E0,0E0,0E0,0E0,0E0,0E0,0E0],"parents":[2147483647,0,0,1,1,2,2,3,3,4,4,5,5,6,6],"right_children":[2,4,6,8,10,12,14,-1,-1,-1,-1,-1,-1,-1,-1],"split_conditions":[-7.7610517E-1,4.547535E-1,1.5952328E0,1.0903696E-1,-5.3457665E-1,-1.967792E0,-2.6392303E0,4.6989895E-2,-2.152758E-1,-3.9124947E-2,9.5654625E-1,-6.186903E-1,6.486332E-2,4.890318E-2,-7.503468E-1],"split_indices":[9,11,6,6,3,3,3,0,0,0,0,0,0,0,0],"split_type":[0,0,0,0,0,0,0,0,0,0,0,0,0,0,0],"sum_hessian":[7.38E2,1.66E2,5.72E2,1.31E2,3.5E1,5.61E2,1.1E1,2E1,1.11E2,3.1E1,4E0,9E0,5.52E2,3E0,8E0],"tree_param":{"num_deleted":"0","num_feature":"12","num_nodes":"15","size_leaf_vector":"0"}},{"base_weights":[1.8430037E-2,6.421956E-2,-2.3574002E0,2.726758E0,4.21276E-3,-2.0947075E-1,-2.6979325E0,8.6206037E-1,-6.2028974E-1,-1.0707431E-1,6.329368E-2,-6.534252E-2,2.501297E-3,-3.4672436E-1,-6.7466134E-1],"categories":[],"categories_nodes":[],"categories_segments":[],"categories_sizes":[],"default_left":[0,0,0,0,0,0,0,0,0,0,0,0,0,0,0],"id":34,"left_children":[1,3,5,7,9,11,13,-1,-1,-1,-1,-1,-1,-1,-1],"loss_changes":[8.0545815E1,1.15981834E2,9.675018E0,1.610357E2,1.1996456E2,8.21611E-2,1.9672089E0,0E0,0E0,0E0,0E0,0E0,0E0,0E0,0E0],"parents":[2147483647,0,0,1,1,2,2,3,3,4,4,5,5,6,6],"right_children":[2,4,6,8,10,12,14,-1,-1,-1,-1,-1,-1,-1,-1],"split_conditions":[1.9508141E0,-1.9556724E0,-1.2320191E0,-2.979539E-2,-6.643859E-1,-1.3180797E0,1.722349E-2,8.6206037E-1,-6.2028974E-1,-1.0707431E-1,6.329368E-2,-6.534252E-2,2.501297E-3,-3.4672436E-1,-6.7466134E-1],"split_indices":[2,11,0,4,4,0,3,0,0,0,0,0,0,0,0],"split_type":[0,0,0,0,0,0,0,0,0,0,0,0,0,0,0],"sum_hessian":[7.38E2,7.25E2,1.3E1,1.5E1,7.1E2,2E0,1.1E1,1.2E1,3E0,2.6E2,4.5E2,1E0,1E0,6E0,5E0],"tree_param":{"num_deleted":"0","num_feature":"12","num_nodes":"15","size_leaf_vector":"0"}},{"base_weights":[1.3545042E-2,-2.2072129E-2,2.9049459E0,-1.7718053E-1,6.225478E-1,1.4222962E0,1.4901938E0,-1.2594216E-3,-4.2132163E-1,9.521125E-1,4.07915E-2,-4.37027E-2,3.5310224E-1],"categories":[],"categories_nodes":[],"categories_segments":[],"categories_sizes":[],"default_left":[0,0,0,0,0,0,0,0,0,0,0,0,0],"id":35,"left_children":[1,3,5,7,9,-1,11,-1,-1,-1,-1,-1,-1],"loss_changes":[7.616894E1,7.320005E1,4.296334E1,1.9451398E2,2.4499194E2,0E0,4.1492805E0,0E0,0E0,0E0,0E0,0E0,0E0],"parents":[2147483647,0,0,1,1,2,2,3,3,4,4,6,6],"right_children":[2,4,6,8,10,-1,12,-1,-1,-1,-1,-1,-1],"split_conditions":[2.5054688E0,1.0801849E0,7.787125E-1,8.34372E-1,1.1512493E0,1.4222962E0,-9.2327833E-1,-1.2594216E-3,-4.2132163E-1,9.521125E-1,4.07915E-2,-4.37027E-2,3.5310224E-1],"split_indices":[0,1,5,1,1,0,3,0,0,0,0,0,0],"split_type":[0,0,0,0,0,0,0,0,0,0,0,0,0],"sum_hessian":[7.38E2,7.3E2,8E0,5.89E2,1.41E2,1E0,7E0,5.42E2,4.7E1,1.2E1,1.29E2,1E0,6E0],"tree_param":{"num_deleted":"0","num_feature":"12","num_nodes":"13","size_leaf_vector":"0"}},{"base_weights":[1.3950807E-2,1.8646744E-1,-5.473042E-1,1.7375357E0,6.202681E-2,-2.3139168E-2,-2.0954475E0,1.10452555E-1,9.309392E-1,-2.7180845E-1,5.245198E-2,1.857386E-1,-2.26126E-1,7.906231E-1,-4.6560898E-1],"categories":[],"categories_nodes":[],"categories_segments":[],"categories_sizes":[],"default_left":[0,0,0,0,0,0,0,0,0,0,0,0,0,0,0],"id":36,"left_children":[1,3,5,7,9,11,13,-1,-1,-1,-1,-1,-1,-1,-1],"loss_changes":[7.1656334E1,1.09139244E2,1.411495E2,1.4264992E2,1.4974255E2,1.3914305E2,7.110571E1,0E0,0E0,0E0,0E0,0E0,0E0,0E0,0E0],"parents":[2147483647,0,0,1,1,2,2,3,3,4,4,5,5,6,6],"right_children":[2,4,6,8,10,12,14,-1,-1,-1,-1,-1,-1,-1,-1],"split_conditions":[5.836732E-1,-9.86397E-1,-3.949135E-2,-1.3439479E0,-7.671069E-1,-5.0481606E-1,-1.1346941E0,1.10452555E-1,9.309392E-1,-2.7180845E-1,5.245198E-2,1.857386E-1,-2.26126E-1,7.906231E-1,-4.6560898E-1],"split_indices":[3,10,5,10,10,2,8,0,0,0,0,0,0,0,0],"split_type":[0,0,0,0,0,0,0,0,0,0,0,0,0,0,0],"sum_hessian":[7.38E2,5.65E2,1.73E2,4.1E1,5.24E2,1.3E2,4.3E1,3E1,1.1E1,6.4E1,4.6E2,7E1,6E1,1E0,4.2E1],"tree_param":{"num_deleted":"0","num_feature":"12","num_nodes":"15","size_leaf_vector":"0"}},{"base_weights":[1.2658258E-2,-8.0578256E-1,1.3318418E-1,-1.819662E-1,-1.4128118E0,6.0326733E-2,1.8654315E0,-7.5194186E-1,1.1064127E-2,-3.3739328E-1,8.678936E-2,2.4194041E-1,-1.2541728E-2,5.7555795E-1,-1.5441962E-1],"categories":[],"categories_nodes":[],"categories_segments":[],"categories_sizes":[],"default_left":[0,0,0,0,0,0,0,0,0,0,0,0,0,0,0],"id":37,"left_children":[1,3,5,7,9,11,13,-1,-1,-1,-1,-1,-1,-1,-1],"loss_changes":[7.300474E1,3.5717022E1,8.129105E1,4.0957653E1,2.5034332E1,8.775242E1,7.164518E1,0E0,0E0,0E0,0E0,0E0,0E0,0E0,0E0],"parents":[2147483647,0,0,1,1,2,2,3,3,4,4,5,5,6,6],"right_children":[2,4,6,8,10,12,14,-1,-1,-1,-1,-1,-1,-1,-1],"split_conditions":[-9.4357127E-1,-6.544855E-1,1.8661345E0,-1.0820255E0,1.0166909E0,-1.2377555E0,1.1879714E0,-7.5194186E-1,1.1064127E-2,-3.3739328E-1,8.678936E-2,2.4194041E-1,-1.2541728E-2,5.7555795E-1,-1.5441962E-1],"split_indices":[7,1,9,7,5,3,11,0,0,0,0,0,0,0,0],"split_type":[0,0,0,0,0,0,0,0,0,0,0,0,0,0,0],"sum_hessian":[7.38E2,9.4E1,6.44E2,4.7E1,4.7E1,6.19E2,2.5E1,2E0,4.5E1,4.1E1,6E0,5.9E1,5.6E2,1.8E1,7E0],"tree_param":{"num_deleted":"0","num_feature":"12","num_nodes":"15","size_leaf_vector":"0"}},{"base_weights":[9.665384E-3,1.05367824E-1,-8.517872E-1,7.456096E-2,1.3777665E0,1.208577E0,-1.2700605E0,9.113981E-1,8.098038E-3,-1.2740396E-2,1.0941483E0,7.430817E-2,-3.6982587E-1],"categories":[],"categories_nodes":[],"categories_segments":[],"categories_sizes":[],"default_left":[0,0,0,0,0,0,0,0,0,0,0,0,0],"id":38,"left_children":[1,3,5,7,-1,9,11,-1,-1,-1,-1,-1,-1],"loss_changes":[6.1015217E1,1.3866525E2,6.530783E1,1.01221466E2,0E0,7.08431E1,5.9624237E1,0E0,0E0,0E0,0E0,0E0,0E0],"parents":[2147483647,0,0,1,1,2,2,3,3,5,5,6,6],"right_children":[2,4,6,8,-1,10,12,-1,-1,-1,-1,-1,-1],"split_conditions":[1.0568322E0,1.9218299E0,-5.6295466E-1,-1.4008952E0,1.3777665E0,1.9293542E0,-7.0127636E-1,9.113981E-1,8.098038E-3,-1.2740396E-2,1.0941483E0,7.430817E-2,-3.6982587E-1],"split_indices":[4,11,9,8,0,7,7,0,0,0,0,0,0],"split_type":[0,0,0,0,0,0,0,0,0,0,0,0,0],"sum_hessian":[7.38E2,6.65E2,7.3E1,6.63E2,2E0,1.2E1,6.1E1,4E0,6.59E2,1E1,2E0,1.6E1,4.5E1],"tree_param":{"num_deleted":"0","num_feature":"12","num_nodes":"13","size_leaf_vector":"0"}},{"base_weights":[1.1904199E-2,-2.4122769E-1,3.441026E-1,5.38599E-1,-5.887749E-1,-8.8280976E-1,6.974905E-1,2.1959732E-1,-3.7094963E-1,-8.4445074E-2,-5.4200405E-1,2.8816054E-2,-7.5097513E-1,-1.5690362E-1,2.3860939E-1],"categories":[],"categories_nodes":[],"categories_segments":[],"categories_sizes":[],"default_left":[0,0,0,0,0,0,0,0,0,0,0,0,0,0,0],"id":39,"left_children":[1,3,5,7,9,11,13,-1,-1,-1,-1,-1,-1,-1,-1],"loss_changes":[6.222552E1,1.1414829E2,1.3936008E2,1.760816E2,1.0166387E2,2.128903E2,1.8380627E2,0E0,0E0,0E0,0E0,0E0,0E0,0E0,0E0],"parents":[2147483647,0,0,1,1,2,2,3,3,4,4,5,5,6,6],"right_children":[2,4,6,8,10,12,14,-1,-1,-1,-1,-1,-1,-1,-1],"split_conditions":[-2.4615644E-1,-1.7337371E-1,-7.1276146E-1,-5.4963636E-1,9.254963E-1,-8.28619E-1,-2.1668652E-1,2.1959732E-1,-3.7094963E-1,-8.4445074E-2,-5.4200405E-1,2.8816054E-2,-7.5097513E-1,-1.5690362E-1,2.3860939E-1],"split_indices":[1,6,10,1,3,10,7,0,0,0,0,0,0,0,0],"split_type":[0,0,0,0,0,0,0,0,0,0,0,0,0,0,0],"sum_hessian":[7.38E2,4.19E2,3.19E2,1.29E2,2.9E2,7.1E1,2.48E2,1.05E2,2.4E1,2.7E2,2E1,5.3E1,1.8E1,6.2E1,1.86E2],"tree_param":{"num_deleted":"0","num_feature":"12","num_nodes":"15","size_leaf_vector":"0"}},{"base_weights":[7.604452E-3,1.1668211E-1,-7.070431E-1,-1.3212991E-1,6.877134E-1,-1.9229624E0,-1.0091993E-3,-1.4198265E-2,-6.971756E-1,1.2340841E0,9.62023E-2,-1.8312219E-1,-8.9010304E-1,1.1232074E0,-5.5448163E-2],"categories":[],"categories_nodes":[],"categories_segments":[],"categories_sizes":[],"default_left":[0,0,0,0,0,0,0,0,0,0,0,0,0,0,0],"id":40,"left_children":[1,3,5,7,9,11,13,-1,-1,-1,-1,-1,-1,-1,-1],"loss_changes":[5.7689087E1,9.130586E1,8.412912E1,9.161197E1,2.1802277E2,8.758588E1,9.930816E1,0E0,0E0,0E0,0E0,0E0,0E0,0E0,0E0],"parents":[2147483647,0,0,1,1,2,2,3,3,4,4,5,5,6,6],"right_children":[2,4,6,8,10,12,14,-1,-1,-1,-1,-1,-1,-1,-1],"split_conditions":[1.2294695E0,3.103594E-1,1.06271E0,2.7750668E-1,3.1315535E-1,-2.9474837E-1,-3.0506685E-1,-1.4198265E-2,-6.971756E-1,1.2340841E0,9.62023E-2,-1.8312219E-1,-8.9010304E-1,1.1232074E0,-5.5448163E-2],"split_indices":[8,1,1,1,1,9,3,0,0,0,0,0,0,0,0],"split_type":[0,0,0,0,0,0,0,0,0,0,0,0,0,0,0],"sum_hessian":[7.38E2,6.41E2,9.7E1,4.47E2,1.94E2,3.5E1,6.2E1,4.4E2,7E0,6E0,1.88E2,2.6E1,9E0,2E0,6E1],"tree_param":{"num_deleted":"0","num_feature":"12","num_nodes":"15","size_leaf_vector":"0"}},{"base_weights":[6.91368E-3,-2.1779637E0,3.9872166E-2,-3.0858288E0,1.8225765E-1,1.4826971E0,-4.3827645E-2,4.8435736E-2,-7.191711E-1,-2.7533266E-1,2.3215714E-1,1.326562E-1,1.050181E0,2.373796E-3,-7.6647705E-1],"categories":[],"categories_nodes":[],"categories_segments":[],"categories_sizes":[],"default_left":[0,0,0,0,0,0,0,0,0,0,0,0,0,0,0],"id":41,"left_children":[1,3,5,7,9,11,13,-1,-1,-1,-1,-1,-1,-1,-1],"loss_changes":[5.3302418E1,2.4132809E1,8.8102066E1,1.4449814E1,7.6998014E0,1.2002639E2,1.456423E2,0E0,0E0,0E0,0E0,0E0,0E0,0E0,0E0],"parents":[2147483647,0,0,1,1,2,2,3,3,4,4,5,5,6,6],"right_children":[2,4,6,8,10,12,14,-1,-1,-1,-1,-1,-1,-1,-1],"split_conditions":[-2.111846E0,3.6152017E-1,-1.4477327E0,-9.4357127E-1,-9.4357127E-1,1.215415E0,1.7474145E0,4.8435736E-2,-7.191711E-1,-2.7533266E-1,2.3215714E-1,1.326562E-1,1.050181E0,2.373796E-3,-7.6647705E-1],"split_indices":[3,0,3,7,7,5,11,0,0,0,0,0,0,0,0],"split_type":[0,0,0,0,0,0,0,0,0,0,0,0,0,0,0],"sum_hessian":[7.38E2,1E1,7.28E2,7E0,3E0,3.9E1,6.89E2,1E0,6E0,1E0,2E0,3.3E1,6E0,6.8E2,9E0],"tree_param":{"num_deleted":"0","num_feature":"12","num_nodes":"15","size_leaf_vector":"0"}},{"base_weights":[5.131733E-3,-1.0800145E-1,5.6170595E-1,2.2600712E-1,-4.7345302E-1,-1.3307259E0,8.3186233E-1,1.2625296E0,2.9795423E-2,-2.9003903E-1,-7.0857047E-3,-3.6783728E-1,1.3089047E-1,2.2371192E-1,-2.786766E-1],"categories":[],"categories_nodes":[],"categories_segments":[],"categories_sizes":[],"default_left":[0,0,0,0,0,0,0,0,0,0,0,0,0,0,0],"id":42,"left_children":[1,3,5,7,9,11,13,-1,-1,-1,-1,-1,-1,-1,-1],"loss_changes":[4.6593285E1,7.517633E1,6.501356E1,1.5003052E2,1.2573271E2,1.7353811E1,7.173546E1,0E0,0E0,0E0,0E0,0E0,0E0,0E0,0E0],"parents":[2147483647,0,0,1,1,2,2,3,3,4,4,5,5,6,6],"right_children":[2,4,6,8,10,12,14,-1,-1,-1,-1,-1,-1,-1,-1],"split_conditions":[1.9293542E0,2.1197414E-1,-2.0933545E0,-1.9556724E0,-5.5599433E-1,2.2784958E0,9.688835E-1,1.2625296E0,2.9795423E-2,-2.9003903E-1,-7.0857047E-3,-3.6783728E-1,1.3089047E-1,2.2371192E-1,-2.786766E-1],"split_indices":[7,2,6,11,10,0,10,0,0,0,0,0,0,0,0],"split_type":[0,0,0,0,0,0,0,0,0,0,0,0,0,0,0],"sum_hessian":[7.38E2,6.14E2,1.24E2,3.21E2,2.93E2,1.5E1,1.09E2,3E0,3.18E2,9E1,2.03E2,1.2E1,3E0,9.7E1,1.2E1],"tree_param":{"num_deleted":"0","num_feature":"12","num_nodes":"15","size_leaf_vector":"0"}},{"base_weights":[5.056678E-3,-5.2340917E-2,1.0954742E0,9.653509E-3,-1.8856393E0,1.400683E-1,2.655065E0,-7.373113E-3,5.2123284E-1,3.7579577E-2,-1.0264038E0,3.3187705E-1,-2.1273711E-1,1.0320748E0,1.379704E-1],"categories":[],"categories_nodes":[],"categories_segments":[],"categories_sizes":[],"default_left":[0,0,0,0,0,0,0,0,0,0,0,0,0,0,0],"id":43,"left_children":[1,3,5,7,9,11,13,-1,-1,-1,-1,-1,-1,-1,-1],"loss_changes":[4.6309387E1,7.991716E1,5.4759666E1,8.235221E1,1.5578854E2,4.565827E1,6.536864E1,0E0,0E0,0E0,0E0,0E0,0E0,0E0,0E0],"parents":[2147483647,0,0,1,1,2,2,3,3,4,4,5,5,6,6],"right_children":[2,4,6,8,10,12,14,-1,-1,-1,-1,-1,-1,-1,-1],"split_conditions":[1.7573287E0,1.5832394E0,5.039561E-1,1.4853142E0,9.7685647E-1,-1.0730994E0,9.880902E-1,-7.373113E-3,5.2123284E-1,3.7579577E-2,-1.0264038E0,3.3187705E-1,-2.1273711E-1,1.0320748E0,1.379704E-1],"split_indices":[9,9,4,9,4,8,11,0,0,0,0,0,0,0,0],"split_type":[0,0,0,0,0,0,0,0,0,0,0,0,0,0,0],"sum_hessian":[7.38E2,7.02E2,3.6E1,6.8E2,2.2E1,2.3E1,1.3E1,6.69E2,1.1E1,1.4E1,8E0,1E1,1.3E1,5E0,8E0],"tree_param":{"num_deleted":"0","num_feature":"12","num_nodes":"15","size_leaf_vector":"0"}},{"base_weights":[5.1475577E-3,-1.9050117E0,3.39632E-2,-4.7606125E-1,-2.653546E0,1.2848444E-1,-5.7594895E-1,8.037215E-2,-1.5920138E-1,-5.323067E-2,-6.0141724E-1,5.2475864E-1,1.7645022E-2,3.2888636E-2,-3.053573E-1],"categories":[],"categories_nodes":[],"categories_segments":[],"categories_sizes":[],"default_left":[0,0,0,0,0,0,0,0,0,0,0,0,0,0,0],"id":44,"left_children":[1,3,5,7,9,11,13,-1,-1,-1,-1,-1,-1,-1,-1],"loss_changes":[4.0741085E1,1.0502552E1,4.21006E1,1.7243204E0,5.1079254E0,6.3258923E1,6.924235E1,0E0,0E0,0E0,0E0,0E0,0E0,0E0,0E0],"parents":[2147483647,0,0,1,1,2,2,3,3,4,4,5,5,6,6],"right_children":[2,4,6,8,10,12,14,-1,-1,-1,-1,-1,-1,-1,-1],"split_conditions":[-1.8006204E0,-2.1668652E-1,1.2294695E0,-9.738843E-1,-5.3457665E-1,-1.9556724E0,-1.1922988E0,8.037215E-2,-1.5920138E-1,-5.323067E-2,-6.0141724E-1,5.2475864E-1,1.7645022E-2,3.2888636E-2,-3.053573E-1],"split_indices":[9,7,8,11,3,11,0,0,0,0,0,0,0,0,0],"split_type":[0,0,0,0,0,0,0,0,0,0,0,0,0,0,0],"sum_hessian":[7.38E2,1E1,7.28E2,4E0,6E0,6.31E2,9.7E1,1E0,3E0,1E0,5E0,9E0,6.22E2,5.5E1,4.2E1],"tree_param":{"num_deleted":"0","num_feature":"12","num_nodes":"15","size_leaf_vector":"0"}},{"base_weights":[3.4899274E-3,8.0022156E-2,-6.853473E-1,1.1497699E0,-6.383854E-2,1.0789752E0,-1.0442319E0,1.2718443E0,1.7209193E-1,-5.3358E-3,-1.0964924E0,-5.911957E-2,8.4913284E-1,8.7071165E-2,-3.136671E-1],"categories":[],"categories_nodes":[],"categories_segments":[],"categories_sizes":[],"default_left":[0,0,0,0,0,0,0,0,0,0,0,0,0,0,0],"id":45,"left_children":[1,3,5,7,9,11,13,-1,-1,-1,-1,-1,-1,-1,-1],"loss_changes":[3.9013634E1,1.0256724E2,4.7982624E1,1.135928E2,1.1824964E2,5.7841995E1,4.876113E1,0E0,0E0,0E0,0E0,0E0,0E0,0E0,0E0],"parents":[2147483647,0,0,1,1,2,2,3,3,4,4,5,5,6,6],"right_children":[2,4,6,8,10,12,14,-1,-1,-1,-1,-1,-1,-1,-1],"split_conditions":[1.0568322E0,-9.3743956E-1,-5.6295466E-1,-9.7423095E-1,1.7474145E0,-2.3712099E-1,-7.0127636E-1,1.2718443E0,1.7209193E-1,-5.3358E-3,-1.0964924E0,-5.911957E-2,8.4913284E-1,8.7071165E-2,-3.136671E-1],"split_indices":[4,3,9,5,11,0,7,0,0,0,0,0,0,0,0],"split_type":[0,0,0,0,0,0,0,0,0,0,0,0,0,0,0],"sum_hessian":[7.38E2,6.65E2,7.3E1,7.8E1,5.87E2,1.2E1,6.1E1,3E0,7.5E1,5.84E2,3E0,9E0,3E0,1.6E1,4.5E1],"tree_param":{"num_deleted":"0","num_feature":"12","num_nodes":"15","size_leaf_vector":"0"}},{"base_weights":[4.0173526E-3,-6.013398E-1,9.317225E-2,-7.129673E-1,2.116427E0,-1.6659511E0,1.4344463E-1,-6.6482705E-1,-1.23601295E-1,7.03987E-1,-2.0940971E-1,-4.232603E-1,2.582471E-1,5.429145E-1,9.124772E-3],"categories":[],"categories_nodes":[],"categories_segments":[],"categories_sizes":[],"default_left":[0,0,0,0,0,0,0,0,0,0,0,0,0,0,0],"id":46,"left_children":[1,3,5,7,9,11,13,-1,-1,-1,-1,-1,-1,-1,-1],"loss_changes":[3.9940266E1,3.0329796E1,5.7279743E1,2.0757847E1,2.1445398E1,2.6704514E1,1.5782423E2,0E0,0E0,0E0,0E0,0E0,0E0,0E0,0E0],"parents":[2147483647,0,0,1,1,2,2,3,3,4,4,5,5,6,6],"right_children":[2,4,6,8,10,12,14,-1,-1,-1,-1,-1,-1,-1,-1],"split_conditions":[-9.4357127E-1,1.7732338E0,-1.8432708E0,-1.0820255E0,-9.576655E-1,1.5378239E0,-1.4477327E0,-6.6482705E-1,-1.23601295E-1,7.03987E-1,-2.0940971E-1,-4.232603E-1,2.582471E-1,5.429145E-1,9.124772E-3],"split_indices":[7,2,3,7,0,6,3,0,0,0,0,0,0,0,0],"split_type":[0,0,0,0,0,0,0,0,0,0,0,0,0,0,0],"sum_hessian":[7.38E2,9.4E1,6.44E2,9.1E1,3E0,1.7E1,6.27E2,2E0,8.9E1,2E0,1E0,1.5E1,2E0,2.2E1,6.05E2],"tree_param":{"num_deleted":"0","num_feature":"12","num_nodes":"15","size_leaf_vector":"0"}},{"base_weights":[3.3399551E-3,1.7438695E-1,-2.9968837E-1,2.8716452E-2,2.4036622E0,1.6196288E-1,-8.254199E-1,-6.7505945E-4,9.5160526E-1,1.278778E0,1.1582091E-1,8.0463517E-1,-7.3015164E-3,-3.943078E-1,-2.6620666E-2],"categories":[],"categories_nodes":[],"categories_segments":[],"categories_sizes":[],"default_left":[0,0,0,0,0,0,0,0,0,0,0,0,0,0,0],"id":47,"left_children":[1,3,5,7,9,11,13,-1,-1,-1,-1,-1,-1,-1,-1],"loss_changes":[3.835617E1,1.535328E2,6.493583E1,6.755452E1,2.0742885E2,1.0973303E2,9.892222E1,0E0,0E0,0E0,0E0,0E0,0E0,0E0,0E0],"parents":[2147483647,0,0,1,1,2,2,3,3,4,4,5,5,6,6],"right_children":[2,4,6,8,10,12,14,-1,-1,-1,-1,-1,-1,-1,-1],"split_conditions":[3.239986E-1,7.2460926E-1,2.6750594E-1,1.9218299E0,-3.0506685E-1,-6.949335E-1,7.091114E-1,-6.7505945E-4,9.5160526E-1,1.278778E0,1.1582091E-1,8.0463517E-1,-7.3015164E-3,-3.943078E-1,-2.6620666E-2],"split_indices":[6,10,4,11,3,8,4,0,0,0,0,0,0,0,0],"split_type":[0,0,0,0,0,0,0,0,0,0,0,0,0,0,0],"sum_hessian":[7.38E2,4.72E2,2.66E2,4.44E2,2.8E1,1.42E2,1.24E2,4.42E2,2E0,8E0,2E1,6E0,1.36E2,4.6E1,7.8E1],"tree_param":{"num_deleted":"0","num_feature":"12","num_nodes":"15","size_leaf_vector":"0"}},{"base_weights":[6.3550035E-3,1.0447578E-1,-4.8113492E-1,-7.626313E-2,8.444925E-1,8.995597E-1,-1.2789934E0,-8.002944E-1,-5.628383E-3,-5.5664825E-1,2.6138696E-1,2.998849E-1,-4.2388108E-2,-8.880919E-2,-5.741188E-1],"categories":[],"categories_nodes":[],"categories_segments":[],"categories_sizes":[],"default_left":[0,0,0,0,0,0,0,0,0,0,0,0,0,0,0],"id":48,"left_children":[1,3,5,7,9,11,13,-1,-1,-1,-1,-1,-1,-1,-1],"loss_changes":[3.539877E1,8.2454285E1,1.3774878E2,9.3574745E1,2.066293E2,3.0988281E1,1.0370865E2,0E0,0E0,0E0,0E0,0E0,0E0,0E0,0E0],"parents":[2147483647,0,0,1,1,2,2,3,3,4,4,5,5,6,6],"right_children":[2,4,6,8,10,12,14,-1,-1,-1,-1,-1,-1,-1,-1],"split_conditions":[1.0009031E0,4.4852644E-1,-1.1346941E0,-6.6951764E-1,-9.2327833E-1,7.5249314E-1,-7.8361917E-1,-8.002944E-1,-5.628383E-3,-5.5664825E-1,2.6138696E-1,2.998849E-1,-4.2388108E-2,-8.880919E-2,-5.741188E-1],"split_indices":[11,0,8,8,3,7,3,0,0,0,0,0,0,0,0],"split_type":[0,0,0,0,0,0,0,0,0,0,0,0,0,0,0],"sum_hessian":[7.38E2,6.15E2,1.23E2,4.95E2,1.2E2,4.5E1,7.8E1,5E0,4.9E2,1.3E1,1.07E2,2.9E1,1.6E1,5.2E1,2.6E1],"tree_param":{"num_deleted":"0","num_feature":"12","num_nodes":"15","size_leaf_vector":"0"}},{"base_weights":[3.044844E-3,-2.741152E-1,1.641228E-1,2.5014095E0,-4.006753E-1,-5.3194553E-2,1.2030736E0,1.0374253E0,2.0596467E-1,7.349097E-2,-1.3250844E-1,2.9867843E-2,-4.3326417E-1,4.039712E-1,-1.6418901E-1],"categories":[],"categories_nodes":[],"categories_segments":[],"categories_sizes":[],"default_left":[0,0,0,0,0,0,0,0,0,0,0,0,0,0,0],"id":49,"left_children":[1,3,5,7,9,11,13,-1,-1,-1,-1,-1,-1,-1,-1],"loss_changes":[3.3037186E1,9.654787E1,1.0572999E2,4.2085342E1,5.2743046E1,1.6637953E2,1.3556598E2,0E0,0E0,0E0,0E0,0E0,0E0,0E0,0E0],"parents":[2147483647,0,0,1,1,2,2,3,3,4,4,5,5,6,6],"right_children":[2,4,6,8,10,12,14,-1,-1,-1,-1,-1,-1,-1,-1],"split_conditions":[-6.643859E-1,-1.9556724E0,1.0801849E0,7.5249314E-1,-8.28828E-1,7.9010236E-1,1.0009031E0,1.0374253E0,2.0596467E-1,7.349097E-2,-1.3250844E-1,2.9867843E-2,-4.3326417E-1,4.039712E-1,-1.6418901E-1],"split_indices":[4,11,1,7,10,1,11,0,0,0,0,0,0,0,0],"split_type":[0,0,0,0,0,0,0,0,0,0,0,0,0,0,0],"sum_hessian":[7.38E2,2.71E2,4.67E2,1.1E1,2.6E2,3.87E2,8E1,3E0,8E0,6.6E1,1.94E2,3.54E2,3.3E1,5.7E1,2.3E1],"tree_param":{"num_deleted":"0","num_feature":"12","num_nodes":"15","size_leaf_vector":"0"}},{"base_weights":[3.8169234E-3,9.404416E-2,-5.47994E-1,1.7849517E-1,-7.196604E-1,-3.6937234E-1,-2.3924038E0,2.711274E-1,1.0872535E-2,-4.0216915E-2,-6.5848625E-1,-1.246046E-1,6.749913E-2,2.0950337E-1,-7.0497674E-1],"categories":[],"categories_nodes":[],"categories_segments":[],"categories_sizes":[],"default_left":[0,0,0,0,0,0,0,0,0,0,0,0,0,0,0],"id":50,"left_children":[1,3,5,7,9,11,13,-1,-1,-1,-1,-1,-1,-1,-1],"loss_changes":[3.684515E1,4.383321E1,3.337928E1,8.4238434E1,7.938855E1,1.7422832E1,3.875314E1,0E0,0E0,0E0,0E0,0E0,0E0,0E0,0E0],"parents":[2147483647,0,0,1,1,2,2,3,3,4,4,5,5,6,6],"right_children":[2,4,6,8,10,12,14,-1,-1,-1,-1,-1,-1,-1,-1],"split_conditions":[1.1607124E0,1.0568322E0,1.0964079E0,-9.3743956E-1,6.5245974E-1,8.986193E-1,-7.0127636E-1,2.711274E-1,1.0872535E-2,-4.0216915E-2,-6.5848625E-1,-1.246046E-1,6.749913E-2,2.0950337E-1,-7.0497674E-1],"split_indices":[2,4,3,3,2,4,7,0,0,0,0,0,0,0,0],"split_type":[0,0,0,0,0,0,0,0,0,0,0,0,0,0,0],"sum_hessian":[7.38E2,6.35E2,1.03E2,5.76E2,5.9E1,9.5E1,8E0,5.4E1,5.22E2,5E1,9E0,7E1,2.5E1,2E0,6E0],"tree_param":{"num_deleted":"0","num_feature":"12","num_nodes":"15","size_leaf_vector":"0"}},{"base_weights":[1.7423623E-3,-2.284064E0,2.0425053E-2,-9.994888E-2,-6.702269E-1,1.0822217E0,-3.2693963E-2,8.742943E-2,-1.17414095E-1,-2.7068496E-1,3.265637E-1,-2.0353971E-1,4.448516E-3],"categories":[],"categories_nodes":[],"categories_segments":[],"categories_sizes":[],"default_left":[0,0,0,0,0,0,0,0,0,0,0,0,0],"id":51,"left_children":[1,3,5,7,-1,9,11,-1,-1,-1,-1,-1,-1],"loss_changes":[3.1605658E1,1.3648682E1,4.143415E1,1.0415293E0,0E0,4.914697E1,3.7901554E1,0E0,0E0,0E0,0E0,0E0,0E0],"parents":[2147483647,0,0,1,1,2,2,3,3,5,5,6,6],"right_children":[2,4,6,8,-1,10,12,-1,-1,-1,-1,-1,-1],"split_conditions":[-2.0377734E0,5.289127E-1,-1.6206979E0,4.8635527E-1,-6.702269E-1,-7.0127636E-1,-1.5102955E0,8.742943E-2,-1.17414095E-1,-2.7068496E-1,3.265637E-1,-2.0353971E-1,4.448516E-3],"split_indices":[5,0,5,0,0,7,5,0,0,0,0,0,0],"split_type":[0,0,0,0,0,0,0,0,0,0,0,0,0],"sum_hessian":[7.38E2,5E0,7.33E2,2E0,3E0,3.4E1,6.99E2,1E0,1E0,6E0,2.8E1,3.6E1,6.63E2],"tree_param":{"num_deleted":"0","num_feature":"12","num_nodes":"13","size_leaf_vector":"0"}},{"base_weights":[2.529521E-4,1.163361E-1,-3.773523E-1,-1.1684696E-2,8.1185454E-1,-6.1168253E-1,1.4575747E0,2.0347975E-1,-3.342594E-2,-1.4196834E-1,2.1229248E-1,-3.243141E-2,-3.4840548E-1,6.267622E-1,1.5786584E-2],"categories":[],"categories_nodes":[],"categories_segments":[],"categories_sizes":[],"default_left":[0,0,0,0,0,0,0,0,0,0,0,0,0,0,0],"id":52,"left_children":[1,3,5,7,9,11,13,-1,-1,-1,-1,-1,-1,-1,-1],"loss_changes":[3.2436935E1,5.0406593E1,7.57079E1,7.6793686E1,3.417827E1,7.847592E1,4.5971233E1,0E0,0E0,0E0,0E0,0E0,0E0,0E0,0E0],"parents":[2147483647,0,0,1,1,2,2,3,3,4,4,5,5,6,6],"right_children":[2,4,6,8,10,12,14,-1,-1,-1,-1,-1,-1,-1,-1],"split_conditions":[5.836732E-1,1.9293542E0,1.0609717E0,-8.28828E-1,-6.0990334E-1,-8.0891824E-1,7.741323E-1,2.0347975E-1,-3.342594E-2,-1.4196834E-1,2.1229248E-1,-3.243141E-2,-3.4840548E-1,6.267622E-1,1.5786584E-2],"split_indices":[3,7,9,10,5,11,2,0,0,0,0,0,0,0,0],"split_type":[0,0,0,0,0,0,0,0,0,0,0,0,0,0,0],"sum_hessian":[7.38E2,5.65E2,1.73E2,4.78E2,8.7E1,1.54E2,1.9E1,6.2E1,4.16E2,1.2E1,7.5E1,1.11E2,4.3E1,8E0,1.1E1],"tree_param":{"num_deleted":"0","num_feature":"12","num_nodes":"15","size_leaf_vector":"0"}},{"base_weights":[8.8149833E-4,-1.5434626E0,2.8495792E-2,-2.1873627E0,2.6639837E-1,1.8692905E0,-2.087458E-2,-6.761435E-1,-2.044972E-1,-2.4510606E-1,5.552556E-1,8.8658715E-3,-1.3135813E-1],"categories":[],"categories_nodes":[],"categories_segments":[],"categories_sizes":[],"default_left":[0,0,0,0,0,0,0,0,0,0,0,0,0],"id":53,"left_children":[1,3,5,7,-1,9,11,-1,-1,-1,-1,-1,-1],"loss_changes":[3.1559359E1,2.6983116E1,6.61093E1,1.183448E1,0E0,5.6734734E1,2.9427258E1,0E0,0E0,0E0,0E0,0E0,0E0],"parents":[2147483647,0,0,1,1,2,2,3,3,5,5,6,6],"right_children":[2,4,6,8,-1,10,12,-1,-1,-1,-1,-1,-1],"split_conditions":[-1.9028372E0,-8.649747E-1,-1.7433671E0,-4.8573214E-1,2.6639837E-1,-7.0127636E-1,1.4280156E0,-6.761435E-1,-2.044972E-1,-2.4510606E-1,5.552556E-1,8.8658715E-3,-1.3135813E-1],"split_indices":[5,11,5,8,0,7,8,0,0,0,0,0,0],"split_type":[0,0,0,0,0,0,0,0,0,0,0,0,0],"sum_hessian":[7.38E2,1.2E1,7.26E2,1E1,2E0,1.8E1,7.08E2,4E0,6E0,4E0,1.4E1,6.43E2,6.5E1],"tree_param":{"num_deleted":"0","num_feature":"12","num_nodes":"13","size_leaf_vector":"0"}},{"base_weights":[1.2827564E-4,5.9800398E-2,-6.195457E-1,-2.2661076E-1,2.5248364E-1,-1.5334215E0,-2.0874003E-1,2.2849942E-2,-2.1826254E-1,8.069172E-3,2.2222748E-1,-3.635849E-1,1.1814308E-2,5.6685973E-2,-1.7254648E-1],"categories":[],"categories_nodes":[],"categories_segments":[],"categories_sizes":[],"default_left":[0,0,0,0,0,0,0,0,0,0,0,0,0,0,0],"id":54,"left_children":[1,3,5,7,9,11,13,-1,-1,-1,-1,-1,-1,-1,-1],"loss_changes":[2.7363247E1,3.7308193E1,2.408256E1,8.0294685E1,7.3544945E1,9.16877E0,1.5050788E1,0E0,0E0,0E0,0E0,0E0,0E0,0E0,0E0],"parents":[2147483647,0,0,1,1,2,2,3,3,4,4,5,5,6,6],"right_children":[2,4,6,8,10,12,14,-1,-1,-1,-1,-1,-1,-1,-1],"split_conditions":[1.5811758E0,-6.643859E-1,-3.736613E-1,2.25723E-1,9.53201E-1,1.9247676E0,8.559941E-1,2.2849942E-2,-2.1826254E-1,8.069172E-3,2.2222748E-1,-3.635849E-1,1.1814308E-2,5.6685973E-2,-1.7254648E-1],"split_indices":[2,4,6,11,1,8,5,0,0,0,0,0,0,0,0],"split_type":[0,0,0,0,0,0,0,0,0,0,0,0,0,0,0],"sum_hessian":[7.38E2,6.74E2,6.4E1,2.71E2,4.03E2,1.9E1,4.5E1,1.95E2,7.6E1,3.24E2,7.9E1,1.6E1,3E0,2.6E1,1.9E1],"tree_param":{"num_deleted":"0","num_feature":"12","num_nodes":"15","size_leaf_vector":"0"}},{"base_weights":[-4.8301928E-4,-1.2830392E0,2.605329E-2,2.3650615E-1,-2.0664625E0,2.0351173E-1,-1.7886476E-1,-1.4566508E-1,1.150275E-1,-7.513488E-1,-2.922475E-1,2.0297306E-2,6.800692E-1,-2.5051633E-1,5.1844954E-3],"categories":[],"categories_nodes":[],"categories_segments":[],"categories_sizes":[],"default_left":[0,0,0,0,0,0,0,0,0,0,0,0,0,0,0],"id":55,"left_children":[1,3,5,7,9,11,13,-1,-1,-1,-1,-1,-1,-1,-1],"loss_changes":[2.5184782E1,1.8345438E1,2.6400618E1,2.3792205E0,4.740513E0,1.2653024E2,7.413321E1,0E0,0E0,0E0,0E0,0E0,0E0,0E0,0E0],"parents":[2147483647,0,0,1,1,2,2,3,3,4,4,5,5,6,6],"right_children":[2,4,6,8,10,12,14,-1,-1,-1,-1,-1,-1,-1,-1],"split_conditions":[-1.6700535E0,-7.0127636E-1,2.1197414E-1,-5.3457665E-1,-6.9106686E-1,-5.0481606E-1,-5.7816625E-1,-1.4566508E-1,1.150275E-1,-7.513488E-1,-2.922475E-1,2.0297306E-2,6.800692E-1,-2.5051633E-1,5.1844954E-3],"split_indices":[9,7,2,3,0,2,8,0,0,0,0,0,0,0,0],"split_type":[0,0,0,0,0,0,0,0,0,0,0,0,0,0,0],"sum_hessian":[7.38E2,1.4E1,7.24E2,5E0,9E0,3.88E2,3.36E2,1E0,4E0,1E0,8E0,3.77E2,1.1E1,5.3E1,2.83E2],"tree_param":{"num_deleted":"0","num_feature":"12","num_nodes":"15","size_leaf_vector":"0"}},{"base_weights":[-1.2243552E-3,-1.3165402E0,2.229742E-2,-1.8266495E0,1.985415E-1,1.5222222E0,-1.7929474E-2,-1.9819255E-1,-6.082722E-1,-1.6709763E-1,4.4132882E-1,-1.5114868E-2,1.4236893E-1],"categories":[],"categories_nodes":[],"categories_segments":[],"categories_sizes":[],"default_left":[0,0,0,0,0,0,0,0,0,0,0,0,0],"id":56,"left_children":[1,3,5,7,-1,9,11,-1,-1,-1,-1,-1,-1],"loss_changes":[2.2892954E1,1.7126926E1,4.389252E1,8.152424E0,0E0,3.2503334E1,2.9879818E1,0E0,0E0,0E0,0E0,0E0,0E0],"parents":[2147483647,0,0,1,1,2,2,3,3,5,5,6,6],"right_children":[2,4,6,8,-1,10,12,-1,-1,-1,-1,-1,-1],"split_conditions":[-1.9028372E0,-8.649747E-1,-1.7433671E0,1.6408386E0,1.985415E-1,-7.0127636E-1,1.6552659E0,-1.9819255E-1,-6.082722E-1,-1.6709763E-1,4.4132882E-1,-1.5114868E-2,1.4236893E-1],"split_indices":[5,11,5,10,0,7,0,0,0,0,0,0,0],"split_type":[0,0,0,0,0,0,0,0,0,0,0,0,0],"sum_hessian":[7.38E2,1.2E1,7.26E2,1E1,2E0,1.8E1,7.08E2,7E0,3E0,4E0,1.4E1,6.57E2,5.1E1],"tree_param":{"num_deleted":"0","num_feature":"12","num_nodes":"13","size_leaf_vector":"0"}},{"base_weights":[-1.2591031E-3,-7.3456305E-1,4.5101E-2,2.3347795E0,-1.8284281E0,1.4460036E0,-4.479672E-2,-4.2473525E-2,7.269798E-1,-4.6603686E-1,7.36242E-2,5.047612E-1,-2.3049283E-1,-2.782638E-3,-5.081526E-1],"categories":[],"categories_nodes":[],"categories_segments":[],"categories_sizes":[],"default_left":[0,0,0,0,0,0,0,0,0,0,0,0,0,0,0],"id":57,"left_children":[1,3,5,7,9,11,13,-1,-1,-1,-1,-1,-1,-1,-1],"loss_changes":[2.5156208E1,1.5199661E2,8.771758E1,4.0511086E1,3.722815E1,1.20535286E2,5.0454834E1,0E0,0E0,0E0,0E0,0E0,0E0,0E0,0E0],"parents":[2147483647,0,0,1,1,2,2,3,3,4,4,5,5,6,6],"right_children":[2,4,6,8,10,12,14,-1,-1,-1,-1,-1,-1,-1,-1],"split_conditions":[-1.8771056E0,-7.0127636E-1,-1.2592517E0,-9.4357127E-1,2.2784958E0,7.741323E-1,1.5603106E0,-4.2473525E-2,7.269798E-1,-4.6603686E-1,7.36242E-2,5.047612E-1,-2.3049283E-1,-2.782638E-3,-5.081526E-1],"split_indices":[6,7,6,7,0,2,3,0,0,0,0,0,0,0,0],"split_type":[0,0,0,0,0,0,0,0,0,0,0,0,0,0,0],"sum_hessian":[7.38E2,4.3E1,6.95E2,1.1E1,3.2E1,4.1E1,6.54E2,4E0,7E0,2.6E1,6E0,2.9E1,1.2E1,6.47E2,7E0],"tree_param":{"num_deleted":"0","num_feature":"12","num_nodes":"15","size_leaf_vector":"0"}},{"base_weights":[-9.3280186E-4,9.257252E-2,-3.0508843E-1,-2.642784E-1,2.583105E-1,-4.669237E-1,1.5778093E0,4.699085E-2,-2.141594E-1,-5.6842207E-3,2.9029858E-1,2.2908936E-1,-1.2808475E-1,7.468883E-1,6.834248E-2],"categories":[],"categories_nodes":[],"categories_segments":[],"categories_sizes":[],"default_left":[0,0,0,0,0,0,0,0,0,0,0,0,0,0,0],"id":58,"left_children":[1,3,5,7,9,11,13,-1,-1,-1,-1,-1,-1,-1,-1],"loss_changes":[2.104553E1,3.354363E1,5.3757874E1,7.272686E1,1.3244289E2,4.577272E1,3.604518E1,0E0,0E0,0E0,0E0,0E0,0E0,0E0,0E0],"parents":[2147483647,0,0,1,1,2,2,3,3,4,4,5,5,6,6],"right_children":[2,4,6,8,10,12,14,-1,-1,-1,-1,-1,-1,-1,-1],"split_conditions":[5.836732E-1,-7.478389E-1,1.2241803E0,2.25723E-1,1.722349E-2,-1.2651193E0,-1.5475836E0,4.699085E-2,-2.141594E-1,-5.6842207E-3,2.9029858E-1,2.2908936E-1,-1.2808475E-1,7.468883E-1,6.834248E-2],"split_indices":[3,4,9,11,3,0,6,0,0,0,0,0,0,0,0],"split_type":[0,0,0,0,0,0,0,0,0,0,0,0,0,0,0],"sum_hessian":[7.38E2,5.65E2,1.73E2,1.79E2,3.86E2,1.6E2,1.3E1,1.11E2,6.8E1,3.12E2,7.4E1,1.5E1,1.45E2,4E0,9E0],"tree_param":{"num_deleted":"0","num_feature":"12","num_nodes":"15","size_leaf_vector":"0"}},{"base_weights":[6.52561E-4,-6.1164655E-2,4.7700107E-1,-9.1161504E-2,1.3187742E0,1.2399028E-1,1.4232045E0,-1.69678E-3,-1.625166E-1,1.1256729E0,1.1086323E-1,1.0650773E-1,-1.5620312E-1,5.711631E-1,-2.2452283E-1],"categories":[],"categories_nodes":[],"categories_segments":[],"categories_sizes":[],"default_left":[0,0,0,0,0,0,0,0,0,0,0,0,0,0,0],"id":59,"left_children":[1,3,5,7,9,11,13,-1,-1,-1,-1,-1,-1,-1,-1],"loss_changes":[2.1790167E1,2.7233175E1,2.8215239E1,3.8285458E1,4.3003124E1,2.3709457E1,8.709083E1,0E0,0E0,0E0,0E0,0E0,0E0,0E0,0E0],"parents":[2147483647,0,0,1,1,2,2,3,3,4,4,5,5,6,6],"right_children":[2,4,6,8,10,12,14,-1,-1,-1,-1,-1,-1,-1,-1],"split_conditions":[1.9639678E0,1.8753755E0,7.438835E-1,1.215415E0,-1.7163079E0,5.244236E-1,9.5448697E-1,-1.69678E-3,-1.625166E-1,1.1256729E0,1.1086323E-1,1.0650773E-1,-1.5620312E-1,5.711631E-1,-2.2452283E-1],"split_indices":[7,5,4,5,3,11,0,0,0,0,0,0,0,0,0],"split_type":[0,0,0,0,0,0,0,0,0,0,0,0,0,0,0],"sum_hessian":[7.38E2,6.54E2,8.4E1,6.41E2,1.3E1,6.2E1,2.2E1,5.76E2,6.5E1,1E0,1.2E1,4.3E1,1.9E1,1.4E1,8E0],"tree_param":{"num_deleted":"0","num_feature":"12","num_nodes":"15","size_leaf_vector":"0"}},{"base_weights":[2.3754349E-3,-1.3615518E0,2.2952698E-2,-6.566336E-1,-6.044912E-1,4.0294513E-2,-6.260651E-1,-2.1832092E-1,3.199625E-2,8.69594E-2,-1.4938858E-2],"categories":[],"categories_nodes":[],"categories_segments":[],"categories_sizes":[],"default_left":[0,0,0,0,0,0,0,0,0,0,0],"id":60,"left_children":[1,3,5,7,-1,9,-1,-1,-1,-1,-1],"loss_changes":[2.0771944E1,1.0894169E1,3.999046E1,3.37147E0,0E0,3.296628E1,0E0,0E0,0E0,0E0,0E0],"parents":[2147483647,0,0,1,1,2,2,3,3,5,5],"right_children":[2,4,6,8,-1,10,-1,-1,-1,-1,-1],"split_conditions":[-2.111846E0,2.740117E-1,2.4805732E0,-1.0042895E0,-6.044912E-1,-7.533434E-1,-6.260651E-1,-2.1832092E-1,3.199625E-2,8.69594E-2,-1.4938858E-2],"split_indices":[3,1,10,0,0,3,0,0,0,0,0],"split_type":[0,0,0,0,0,0,0,0,0,0,0],"sum_hessian":[7.38E2,1E1,7.28E2,8E0,2E0,7.25E2,3E0,5E0,3E0,1.63E2,5.62E2],"tree_param":{"num_deleted":"0","num_feature":"12","num_nodes":"11","size_leaf_vector":"0"}},{"base_weights":[8.0148006E-5,-4.774799E-2,5.624717E-1,4.8807837E-2,-6.305724E-1,2.44962E0,1.425817E-1,-1.7388463E-2,1.5763688E-1,-2.6402497E-1,1.04659975E-1,1.6422991E-1,-1.2835912E-1],"categories":[],"categories_nodes":[],"categories_segments":[],"categories_sizes":[],"default_left":[0,0,0,0,0,0,0,0,0,0,0,0,0],"id":61,"left_children":[1,3,5,7,9,-1,11,-1,-1,-1,-1,-1,-1],"loss_changes":[1.9904583E1,3.841039E1,2.82841E2,5.8885624E1,7.78694E1,0E0,3.0865444E1,0E0,0E0,0E0,0E0,0E0,0E0],"parents":[2147483647,0,0,1,1,2,2,3,3,4,4,6,6],"right_children":[2,4,6,8,10,-1,12,-1,-1,-1,-1,-1,-1],"split_conditions":[1.6552659E0,9.3107283E-1,5.387039E-1,4.4852644E-1,7.5249314E-1,2.44962E0,-5.252976E-1,-1.7388463E-2,1.5763688E-1,-2.6402497E-1,1.04659975E-1,1.6422991E-1,-1.2835912E-1],"split_indices":[0,11,9,0,7,0,4,0,0,0,0,0,0],"split_type":[0,0,0,0,0,0,0,0,0,0,0,0,0],"sum_hessian":[7.38E2,6.81E2,5.7E1,5.85E2,9.6E1,1E0,5.6E1,4.95E2,9E1,6E1,3.6E1,3E1,2.6E1],"tree_param":{"num_deleted":"0","num_feature":"12","num_nodes":"13","size_leaf_vector":"0"}},{"base_weights":[3.4013737E-3,-2.6366851E0,1.4143379E-2,-7.149345E-1,-7.607098E-2,6.617047E-2,-4.5288542E-1,7.2514117E-1,9.987938E-3,2.4344366E-2,-3.4646136E-1],"categories":[],"categories_nodes":[],"categories_segments":[],"categories_sizes":[],"default_left":[0,0,0,0,0,0,0,0,0,0,0],"id":62,"left_children":[1,3,5,-1,-1,7,9,-1,-1,-1,-1],"loss_changes":[2.0995201E1,4.989584E0,1.7937704E1,0E0,0E0,3.818089E1,5.4613045E1,0E0,0E0,0E0,0E0],"parents":[2147483647,0,0,1,1,2,2,5,5,6,6],"right_children":[2,4,6,-1,-1,8,10,-1,-1,-1,-1],"split_conditions":[-1.0820255E0,1.0585163E0,1.4280156E0,-7.149345E-1,-7.607098E-2,-1.2395848E0,2.0491618E-1,7.2514117E-1,9.987938E-3,2.4344366E-2,-3.4646136E-1],"split_indices":[7,0,8,0,0,0,4,0,0,0,0],"split_type":[0,0,0,0,0,0,0,0,0,0,0],"sum_hessian":[7.38E2,2E0,7.36E2,1E0,1E0,6.63E2,7.3E1,2E0,6.61E2,5.1E1,2.2E1],"tree_param":{"num_deleted":"0","num_feature":"12","num_nodes":"11","size_leaf_vector":"0"}},{"base_weights":[2.2100229E-3,1.9719918E-1,-1.2062942E-1,1.2966931E-1,2.5276537E0,-8.402157E-1,1.0368166E-1,9.32124E-2,-7.3725E-2,5.516439E-1,9.136925E-2,4.152267E-2,-3.5627788E-1,4.8288652E-1,-1.4351367E-4],"categories":[],"categories_nodes":[],"categories_segments":[],"categories_sizes":[],"default_left":[0,0,0,0,0,0,0,0,0,0,0,0,0,0,0],"id":63,"left_children":[1,3,5,7,9,11,13,-1,-1,-1,-1,-1,-1,-1,-1],"loss_changes":[1.7724583E1,4.468158E1,7.336779E1,4.69385E1,2.5595741E0,1.06878265E2,8.371223E1,0E0,0E0,0E0,0E0,0E0,0E0,0E0,0E0],"parents":[2147483647,0,0,1,1,2,2,3,3,4,4,5,5,6,6],"right_children":[2,4,6,8,10,12,14,-1,-1,-1,-1,-1,-1,-1,-1],"split_conditions":[-2.9587007E-1,-3.4493777E-1,5.8962684E-3,-8.7511644E-2,1.6195754E0,2.0020444E-2,-1.1346941E0,9.32124E-2,-7.3725E-2,5.516439E-1,9.136925E-2,4.152267E-2,-3.5627788E-1,4.8288652E-1,-1.4351367E-4],"split_indices":[5,5,5,8,1,0,8,0,0,0,0,0,0,0,0],"split_type":[0,0,0,0,0,0,0,0,0,0,0,0,0,0,0],"sum_hessian":[7.38E2,2.85E2,4.53E2,2.78E2,7E0,1.07E2,3.46E2,1.66E2,1.12E2,6E0,1E0,5.1E1,5.6E1,1.4E1,3.32E2],"tree_param":{"num_deleted":"0","num_feature":"12","num_nodes":"15","size_leaf_vector":"0"}},{"base_weights":[2.8919736E-3,6.309895E-2,-4.9385172E-1,8.220046E-3,1.4009837E0,4.3520635E-1,-1.2261237E0,-1.8962758E-2,1.0826307E-1,3.1660315E-2,1.639232E0,3.068086E-2,1.029828E0,3.739096E-2,-4.9407145E-1],"categories":[],"categories_nodes":[],"categories_segments":[],"categories_sizes":[],"default_left":[0,0,0,0,0,0,0,0,0,0,0,0,0,0,0],"id":64,"left_children":[1,3,5,7,9,11,13,-1,-1,-1,-1,-1,-1,-1,-1],"loss_changes":[2.2132757E1,4.8446774E1,5.4959473E1,3.492987E1,2.182529E2,4.703236E1,7.9580826E1,0E0,0E0,0E0,0E0,0E0,0E0,0E0,0E0],"parents":[2147483647,0,0,1,1,2,2,3,3,4,4,5,5,6,6],"right_children":[2,4,6,8,10,12,14,-1,-1,-1,-1,-1,-1,-1,-1],"split_conditions":[1.4413464E0,1.6552659E0,-1.325653E0,8.612852E-1,-4.7987393E-1,1.801774E0,-2.1668652E-1,-1.8962758E-2,1.0826307E-1,3.1660315E-2,1.639232E0,3.068086E-2,1.029828E0,3.739096E-2,-4.9407145E-1],"split_indices":[11,0,3,10,5,5,7,0,0,0,0,0,0,0,0],"split_type":[0,0,0,0,0,0,0,0,0,0,0,0,0,0,0],"sum_hessian":[7.38E2,6.59E2,7.9E1,6.34E2,2.5E1,3.5E1,4.4E1,5.32E2,1.02E2,2.2E1,3E0,3.4E1,1E0,2.1E1,2.3E1],"tree_param":{"num_deleted":"0","num_feature":"12","num_nodes":"15","size_leaf_vector":"0"}},{"base_weights":[5.5124466E-3,-2.0686777E0,1.677773E-2,2.637043E-2,-5.6922764E-1,8.668849E-2,-3.289648E-1,5.411175E-2,-5.2476015E-2,-6.3253355E-1,-3.1615186E-2],"categories":[],"categories_nodes":[],"categories_segments":[],"categories_sizes":[],"default_left":[0,0,0,0,0,0,0,0,0,0,0],"id":65,"left_children":[1,3,5,-1,-1,7,9,-1,-1,-1,-1],"loss_changes":[1.7302431E1,7.2185726E0,1.7818462E1,0E0,0E0,3.9415367E1,5.954684E1,0E0,0E0,0E0,0E0],"parents":[2147483647,0,0,1,1,2,2,5,5,6,6],"right_children":[2,4,6,-1,-1,8,10,-1,-1,-1,-1],"split_conditions":[-1.9203068E0,-7.0127636E-1,1.0009031E0,2.637043E-2,-5.6922764E-1,7.741323E-1,1.1432865E0,5.411175E-2,-5.2476015E-2,-6.3253355E-1,-3.1615186E-2],"split_indices":[9,7,11,0,0,2,11,0,0,0,0],"split_type":[0,0,0,0,0,0,0,0,0,0,0],"sum_hessian":[7.38E2,3E0,7.35E2,1E0,2E0,6.12E2,1.23E2,4.01E2,2.11E2,6E0,1.17E2],"tree_param":{"num_deleted":"0","num_feature":"12","num_nodes":"11","size_leaf_vector":"0"}},{"base_weights":[2.7790419E-3,-1.5928848E-1,1.4432465E-1,3.6900598E-1,-4.1819486E-1,-1.3278735E-1,7.8047955E-1,1.24922805E-1,-1.727165E-1,6.364228E-2,-1.4509487E-1,-7.954417E-2,1.3051115E-1,1.24028884E-1,1.9860363E0],"categories":[],"categories_nodes":[],"categories_segments":[],"categories_sizes":[],"default_left":[0,0,0,0,0,0,0,0,0,0,0,0,0,0,0],"id":66,"left_children":[1,3,5,7,9,11,13,-1,-1,-1,-1,-1,-1,-1,-1],"loss_changes":[1.697561E1,4.7343006E1,6.973667E1,3.6456192E1,5.2728397E1,5.7685116E1,1.6988412E2,0E0,0E0,0E0,0E0,0E0,0E0,0E0,0E0],"parents":[2147483647,0,0,1,1,2,2,3,3,4,4,5,5,6,6],"right_children":[2,4,6,8,10,12,14,-1,-1,-1,-1,-1,-1,-1,-1],"split_conditions":[-4.718143E-2,-7.1282154E-1,3.702239E-1,4.7342044E-1,-6.6951764E-1,8.8563156E-1,9.923158E-1,1.24922805E-1,-1.727165E-1,6.364228E-2,-1.4509487E-1,-7.954417E-2,1.3051115E-1,1.24028884E-1,1.9860363E0],"split_indices":[4,11,5,9,8,1,0,0,0,0,0,0,0,0,0],"split_type":[0,0,0,0,0,0,0,0,0,0,0,0,0,0,0],"sum_hessian":[7.38E2,3.44E2,3.94E2,1.13E2,2.31E2,2.75E2,1.19E2,9.4E1,1.9E1,6.8E1,1.63E2,2.06E2,6.9E1,1.18E2,1E0],"tree_param":{"num_deleted":"0","num_feature":"12","num_nodes":"15","size_leaf_vector":"0"}},{"base_weights":[4.9728076E-3,5.7496876E-2,-4.3456367E-1,2.7835233E-2,3.2909203E0,1.5568404E-1,-7.440324E-1,-3.97596E-3,1.7002927E-1,-1.8387248E-1,1.1251805E0,-1.1123323E-1,1.6193973E-1,-3.1406173E-1,2.8528053E-2],"categories":[],"categories_nodes":[],"categories_segments":[],"categories_sizes":[],"default_left":[0,0,0,0,0,0,0,0,0,0,0,0,0,0,0],"id":67,"left_children":[1,3,5,7,9,11,13,-1,-1,-1,-1,-1,-1,-1,-1],"loss_changes":[1.708572E1,6.3304012E1,1.4546226E1,2.5756111E1,6.4157845E1,1.3486018E1,3.8321083E1,0E0,0E0,0E0,0E0,0E0,0E0,0E0,0E0],"parents":[2147483647,0,0,1,1,2,2,3,3,4,4,5,5,6,6],"right_children":[2,4,6,8,10,12,14,-1,-1,-1,-1,-1,-1,-1,-1],"split_conditions":[1.2971381E0,1.0807929E0,7.799807E-2,8.924017E-1,4.6610045E-1,-7.0127636E-1,1.1611485E0,-3.97596E-3,1.7002927E-1,-1.8387248E-1,1.1251805E0,-1.1123323E-1,1.6193973E-1,-3.1406173E-1,2.8528053E-2],"split_indices":[10,10,4,10,2,7,4,0,0,0,0,0,0,0,0],"split_type":[0,0,0,0,0,0,0,0,0,0,0,0,0,0,0],"sum_hessian":[7.38E2,6.6E2,7.8E1,6.55E2,5E0,2.7E1,5.1E1,6.2E2,3.5E1,2E0,3E0,1.3E1,1.4E1,2.6E1,2.5E1],"tree_param":{"num_deleted":"0","num_feature":"12","num_nodes":"15","size_leaf_vector":"0"}},{"base_weights":[5.158698E-3,-1.2035531E0,2.339007E-2,-5.868972E-1,-7.3701113E-1,2.4700125E-3,1.1754124E0,-5.7940196E-2,-3.3683357E-1,-6.977435E-2,1.7062454E-2,3.9590782E-1,-4.329712E-1],"categories":[],"categories_nodes":[],"categories_segments":[],"categories_sizes":[],"default_left":[0,0,0,0,0,0,0,0,0,0,0,0,0],"id":68,"left_children":[1,3,5,-1,7,9,11,-1,-1,-1,-1,-1,-1],"loss_changes":[1.6313105E1,6.720331E0,1.7566269E1,0E0,3.7488232E0,2.0898724E1,3.92034E1,0E0,0E0,0E0,0E0,0E0,0E0],"parents":[2147483647,0,0,1,1,2,2,4,4,5,5,6,6],"right_children":[2,4,6,-1,8,10,12,-1,-1,-1,-1,-1,-1],"split_conditions":[-1.8006204E0,-6.9106686E-1,1.8753755E0,-5.868972E-1,7.5249314E-1,-7.1276146E-1,7.5249314E-1,-5.7940196E-2,-3.3683357E-1,-6.977435E-2,1.7062454E-2,3.9590782E-1,-4.329712E-1],"split_indices":[9,0,5,0,7,10,7,0,0,0,0,0,0],"split_type":[0,0,0,0,0,0,0,0,0,0,0,0,0],"sum_hessian":[7.38E2,1E1,7.28E2,1E0,9E0,7.16E2,1.2E1,7E0,2E0,1.36E2,5.8E2,1E1,2E0],"tree_param":{"num_deleted":"0","num_feature":"12","num_nodes":"13","size_leaf_vector":"0"}},{"base_weights":[2.6768122E-3,1.0358233E-2,-5.6662124E-1,-3.8083E-1,6.8048485E-2,4.6266993E-3,-2.0293906E-1,-2.1549657E-1,2.0165205E-2],"categories":[],"categories_nodes":[],"categories_segments":[],"categories_sizes":[],"default_left":[0,0,0,0,0,0,0,0,0],"id":69,"left_children":[1,3,-1,5,7,-1,-1,-1,-1],"loss_changes":[1.6126867E1,1.6680912E1,0E0,2.4349024E1,2.4289354E1,0E0,0E0,0E0,0E0],"parents":[2147483647,0,0,1,1,3,3,4,4],"right_children":[2,4,-1,6,8,-1,-1,-1,-1],"split_conditions":[3.2205942E0,-9.4357127E-1,-5.6662124E-1,-3.3737516E-1,-1.8432708E0,4.6266993E-3,-2.0293906E-1,-2.1549657E-1,2.0165205E-2],"split_indices":[3,7,0,1,3,0,0,0,0],"split_type":[0,0,0,0,0,0,0,0,0],"sum_hessian":[7.38E2,7.37E2,1E0,9.4E1,6.43E2,5.8E1,3.6E1,1.7E1,6.26E2],"tree_param":{"num_deleted":"0","num_feature":"12","num_nodes":"9","size_leaf_vector":"0"}},{"base_weights":[8.4258156E-4,-2.2931423E0,1.0179233E-2,-6.1946374E-1,-6.8478964E-2,5.719122E-2,-4.117956E-1,6.259758E-1,8.636053E-3,-1.2686165E-1,3.006444E-1],"categories":[],"categories_nodes":[],"categories_segments":[],"categories_sizes":[],"default_left":[0,0,0,0,0,0,0,0,0,0,0],"id":70,"left_children":[1,3,5,-1,-1,7,9,-1,-1,-1,-1],"loss_changes":[1.5851346E1,3.645729E0,1.4644065E1,0E0,0E0,2.8450914E1,3.2486057E1,0E0,0E0,0E0,0E0],"parents":[2147483647,0,0,1,1,2,2,5,5,6,6],"right_children":[2,4,6,-1,-1,8,10,-1,-1,-1,-1],"split_conditions":[-1.0820255E0,1.0585163E0,1.4280156E0,-6.1946374E-1,-6.8478964E-2,-1.2395848E0,7.5249314E-1,6.259758E-1,8.636053E-3,-1.2686165E-1,3.006444E-1],"split_indices":[7,0,8,0,0,0,7,0,0,0,0],"split_type":[0,0,0,0,0,0,0,0,0,0,0],"sum_hessian":[7.38E2,2E0,7.36E2,1E0,1E0,6.63E2,7.3E1,2E0,6.61E2,6.6E1,7E0],"tree_param":{"num_deleted":"0","num_feature":"12","num_nodes":"11","size_leaf_vector":"0"}},{"base_weights":[8.366802E-4,-4.7464028E-2,3.730264E-1,3.5102108E-1,-1.15691E-1,1.0541128E-1,1.0898407E0,-1.1073861E-1,1.6240592E-1,-3.968587E-1,-7.841375E-3,5.2183557E-2,-3.5012957E-1,4.308725E-1,-1.610912E-1],"categories":[],"categories_nodes":[],"categories_segments":[],"categories_sizes":[],"default_left":[0,0,0,0,0,0,0,0,0,0,0,0,0,0,0],"id":71,"left_children":[1,3,5,7,9,11,13,-1,-1,-1,-1,-1,-1,-1,-1],"loss_changes":[1.3302729E1,1.7848377E1,1.6190697E1,4.0489384E1,7.995652E1,1.8640417E1,4.813969E1,0E0,0E0,0E0,0E0,0E0,0E0,0E0,0E0],"parents":[2147483647,0,0,1,1,2,2,3,3,4,4,5,5,6,6],"right_children":[2,4,6,8,10,12,14,-1,-1,-1,-1,-1,-1,-1,-1],"split_conditions":[1.9639678E0,-8.28828E-1,7.438835E-1,-1.8771056E0,-8.27581E-1,6.447831E-1,9.5448697E-1,-1.1073861E-1,1.6240592E-1,-3.968587E-1,-7.841375E-3,5.2183557E-2,-3.5012957E-1,4.308725E-1,-1.610912E-1],"split_indices":[7,10,4,6,10,4,0,0,0,0,0,0,0,0,0],"split_type":[0,0,0,0,0,0,0,0,0,0,0,0,0,0,0],"sum_hessian":[7.38E2,6.54E2,8.4E1,9.5E1,5.59E2,6.2E1,2.2E1,3.2E1,6.3E1,2.1E1,5.38E2,5.8E1,4E0,1.4E1,8E0],"tree_param":{"num_deleted":"0","num_feature":"12","num_nodes":"15","size_leaf_vector":"0"}},{"base_weights":[1.538687E-4,-1.1061381E0,1.6846677E-2,-5.303035E-1,-6.864484E-1,2.3875842E-2,-5.1003855E-1,-5.9592605E-2,-2.9871866E-1,2.3526056E-2,-3.4661915E-2],"categories":[],"categories_nodes":[],"categories_segments":[],"categories_sizes":[],"default_left":[0,0,0,0,0,0,0,0,0,0,0],"id":72,"left_children":[1,3,5,-1,7,9,-1,-1,-1,-1,-1],"loss_changes":[1.3665835E1,5.314248E0,1.321507E1,0E0,2.6906042E0,1.3478928E1,0E0,0E0,0E0,0E0,0E0],"parents":[2147483647,0,0,1,1,2,2,4,4,5,5],"right_children":[2,4,6,-1,8,10,-1,-1,-1,-1,-1],"split_conditions":[-1.8006204E0,-6.9106686E-1,3.2205942E0,-5.303035E-1,7.5249314E-1,5.244236E-1,-5.1003855E-1,-5.9592605E-2,-2.9871866E-1,2.3526056E-2,-3.4661915E-2],"split_indices":[9,0,3,0,7,11,0,0,0,0,0],"split_type":[0,0,0,0,0,0,0,0,0,0,0],"sum_hessian":[7.38E2,1E1,7.28E2,1E0,9E0,7.27E2,1E0,7E0,2E0,4.93E2,2.34E2],"tree_param":{"num_deleted":"0","num_feature":"12","num_nodes":"11","size_leaf_vector":"0"}},{"base_weights":[-1.7845021E-3,3.9311984E-1,-4.8311323E-2,2.3941231E-1,3.176856E0,-2.827696E-2,-3.3368948E0,5.985288E-1,1.6625969E-2,7.740339E-1,1.0969162E-1,-1.8392545E-1,4.036042E-3,-2.0960419E-1,-1.0203516E0],"categories":[],"categories_nodes":[],"categories_segments":[],"categories_sizes":[],"default_left":[0,0,0,0,0,0,0,0,0,0,0,0,0,0,0],"id":73,"left_children":[1,3,5,7,9,11,13,-1,-1,-1,-1,-1,-1,-1,-1],"loss_changes":[1.3597115E1,3.2614155E1,4.3521297E1,3.202236E1,5.166588E0,2.8482292E1,1.0811447E1,0E0,0E0,0E0,0E0,0E0,0E0,0E0,0E0],"parents":[2147483647,0,0,1,1,2,2,3,3,4,4,5,5,6,6],"right_children":[2,4,6,8,10,12,14,-1,-1,-1,-1,-1,-1,-1,-1],"split_conditions":[-1.2377555E0,-1.2411739E0,1.801709E0,-5.6295466E-1,7.5249314E-1,-1.0766104E0,-7.0127636E-1,5.985288E-1,1.6625969E-2,7.740339E-1,1.0969162E-1,-1.8392545E-1,4.036042E-3,-2.0960419E-1,-1.0203516E0],"split_indices":[3,3,11,9,7,3,7,0,0,0,0,0,0,0,0],"split_type":[0,0,0,0,0,0,0,0,0,0,0,0,0,0,0],"sum_hessian":[7.38E2,7.7E1,6.61E2,7.4E1,3E0,6.58E2,3E0,3E0,7.1E1,2E0,1E0,3.3E1,6.25E2,2E0,1E0],"tree_param":{"num_deleted":"0","num_feature":"12","num_nodes":"15","size_leaf_vector":"0"}},{"base_weights":[-1.3069261E-3,1.7296385E-2,-9.6592814E-1,-1.2203686E-1,1.4308873E-1,1.165083E-1,-1.2725515E0,1.04137994E-1,-5.349424E-2,1.848702E-1,-1.2081471E-2,-6.7495234E-2,-3.3958095E-1],"categories":[],"categories_nodes":[],"categories_segments":[],"categories_sizes":[],"default_left":[0,0,0,0,0,0,0,0,0,0,0,0,0],"id":74,"left_children":[1,3,5,7,9,-1,11,-1,-1,-1,-1,-1,-1],"loss_changes":[1.3278172E1,1.2742104E1,7.3884735E0,3.238799E1,6.078766E1,0E0,4.1998444E0,0E0,0E0,0E0,0E0,0E0,0E0],"parents":[2147483647,0,0,1,1,2,2,3,3,4,4,6,6],"right_children":[2,4,6,8,10,-1,12,-1,-1,-1,-1,-1,-1],"split_conditions":[1.9508141E0,-4.718143E-2,-1.2320191E0,-9.91502E-1,2.6750594E-1,1.165083E-1,-1.4980286E0,1.04137994E-1,-5.349424E-2,1.848702E-1,-1.2081471E-2,-6.7495234E-2,-3.3958095E-1],"split_indices":[2,4,0,11,4,0,5,0,0,0,0,0,0],"split_type":[0,0,0,0,0,0,0,0,0,0,0,0,0],"sum_hessian":[7.38E2,7.25E2,1.3E1,3.44E2,3.81E2,2E0,1.1E1,6.3E1,2.81E2,7.8E1,3.03E2,4E0,7E0],"tree_param":{"num_deleted":"0","num_feature":"12","num_nodes":"13","size_leaf_vector":"0"}},{"base_weights":[-1.1365681E-3,2.4751449E-1,-7.930726E-2,1.4731292E-1,1.7882988E0,-1.5879277E0,-3.3071497E-3,-8.8606775E-2,9.12968E-2,-5.423243E-1,5.8609463E-2,3.7346806E-3,-5.8737683E-1],"categories":[],"categories_nodes":[],"categories_segments":[],"categories_sizes":[],"default_left":[0,0,0,0,0,0,0,0,0,0,0,0,0],"id":75,"left_children":[1,3,5,7,-1,9,11,-1,-1,-1,-1,-1,-1],"loss_changes":[1.43837385E1,1.528764E2,6.454569E1,3.2325428E1,0E0,5.7862923E1,3.4681484E1,0E0,0E0,0E0,0E0,0E0,0E0],"parents":[2147483647,0,0,1,1,2,2,3,3,5,5,6,6],"right_children":[2,4,6,8,-1,10,12,-1,-1,-1,-1,-1,-1],"split_conditions":[-7.533434E-1,-7.8361917E-1,-6.1759084E-1,-1.1054358E0,1.7882988E0,1.0498209E0,1.7474145E0,-8.8606775E-2,9.12968E-2,-5.423243E-1,5.8609463E-2,3.7346806E-3,-5.8737683E-1],"split_indices":[3,3,3,8,0,2,11,0,0,0,0,0,0],"split_type":[0,0,0,0,0,0,0,0,0,0,0,0,0],"sum_hessian":[7.38E2,1.76E2,5.62E2,1.75E2,1E0,2.6E1,5.36E2,6E1,1.15E2,1.6E1,1E1,5.33E2,3E0],"tree_param":{"num_deleted":"0","num_feature":"12","num_nodes":"13","size_leaf_vector":"0"}},{"base_weights":[6.999441E-5,-2.4640342E-2,7.703848E-1,4.7081176E-2,-6.677995E-1,2.1344697E0,-2.5898907E-1,-6.6405283E-3,2.0094566E-1,-2.2528379E-1,1.3415848E-1,3.2124538E-2,6.847195E-1,-1.4174442E-1,5.5875397E-1],"categories":[],"categories_nodes":[],"categories_segments":[],"categories_sizes":[],"default_left":[0,0,0,0,0,0,0,0,0,0,0,0,0,0,0],"id":76,"left_children":[1,3,5,7,9,11,13,-1,-1,-1,-1,-1,-1,-1,-1],"loss_changes":[1.4085653E1,3.310546E1,3.284833E1,4.9700146E1,4.4956696E1,2.48955E1,2.1200975E1,0E0,0E0,0E0,0E0,0E0,0E0,0E0,0E0],"parents":[2147483647,0,0,1,1,2,2,3,3,4,4,5,5,6,6],"right_children":[2,4,6,8,10,12,14,-1,-1,-1,-1,-1,-1,-1,-1],"split_conditions":[2.007517E0,1.3725975E0,-4.085153E-1,1.0697E0,7.5249314E-1,-7.0127636E-1,3.681402E-1,-6.6405283E-3,2.0094566E-1,-2.2528379E-1,1.3415848E-1,3.2124538E-2,6.847195E-1,-1.4174442E-1,5.5875397E-1],"split_indices":[1,1,11,1,7,7,0,0,0,0,0,0,0,0,0],"split_type":[0,0,0,0,0,0,0,0,0,0,0,0,0,0,0],"sum_hessian":[7.38E2,7.16E2,2.2E1,6.45E2,7.1E1,9E0,1.3E1,5.96E2,4.9E1,5.3E1,1.8E1,4E0,5E0,1.2E1,1E0],"tree_param":{"num_deleted":"0","num_feature":"12","num_nodes":"15","size_leaf_vector":"0"}},{"base_weights":[1.7304692E-3,1.2199751E-1,-1.3823448E-1,5.2934706E-2,3.9720864E0,-6.110443E-1,8.85764E-2,-1.337857E-1,3.0167654E-2,3.2723707E-1,9.15842E-1,-5.053124E-1,-9.1564275E-2,5.4503965E-1,6.07345E-3],"categories":[],"categories_nodes":[],"categories_segments":[],"categories_sizes":[],"default_left":[0,0,0,0,0,0,0,0,0,0,0,0,0,0,0],"id":77,"left_children":[1,3,5,7,9,11,13,-1,-1,-1,-1,-1,-1,-1,-1],"loss_changes":[1.2456579E1,1.0561713E2,3.6729664E1,2.7804705E1,2.434822E0,3.1421917E1,3.5523563E1,0E0,0E0,0E0,0E0,0E0,0E0,0E0,0E0],"parents":[2147483647,0,0,1,1,2,2,3,3,4,4,5,5,6,6],"right_children":[2,4,6,8,10,12,14,-1,-1,-1,-1,-1,-1,-1,-1],"split_conditions":[-5.0389194E-1,-5.0481606E-1,-5.5599433E-1,-9.4357127E-1,-9.4357127E-1,-6.5161085E-1,-1.5166909E0,-1.337857E-1,3.0167654E-2,3.2723707E-1,9.15842E-1,-5.053124E-1,-9.1564275E-2,5.4503965E-1,6.07345E-3],"split_indices":[2,2,10,7,7,5,6,0,0,0,0,0,0,0,0],"split_type":[0,0,0,0,0,0,0,0,0,0,0,0,0,0,0],"sum_hessian":[7.38E2,3.97E2,3.41E2,3.91E2,6E0,1.1E2,2.31E2,4.6E1,3.45E2,2E0,4E0,7E0,1.03E2,4E0,2.27E2],"tree_param":{"num_deleted":"0","num_feature":"12","num_nodes":"15","size_leaf_vector":"0"}},{"base_weights":[2.864619E-3,1.8516971E-1,-9.884846E-2,-2.4472686E-2,1.3311299E0,3.4494054E-1,-2.5320312E-1,4.4938534E-2,-1.8480392E-1,4.7651497E-1,-2.8949616E-2,4.139735E-2,7.1185046E-1,-3.3396624E-2,-2.9660258E-1],"categories":[],"categories_nodes":[],"categories_segments":[],"categories_sizes":[],"default_left":[0,0,0,0,0,0,0,0,0,0,0,0,0,0,0],"id":78,"left_children":[1,3,5,7,9,11,13,-1,-1,-1,-1,-1,-1,-1,-1],"loss_changes":[1.3721442E1,6.3696663E1,3.2625267E1,5.0638206E1,6.3968857E1,5.3804737E1,3.718244E1,0E0,0E0,0E0,0E0,0E0,0E0,0E0,0E0],"parents":[2147483647,0,0,1,1,2,2,3,3,4,4,5,5,6,6],"right_children":[2,4,6,8,10,12,14,-1,-1,-1,-1,-1,-1,-1,-1],"split_conditions":[-3.0018368E-1,-5.3115845E-1,-7.0127636E-1,-7.533434E-1,9.383133E-1,1.5603106E0,9.880902E-1,4.4938534E-2,-1.8480392E-1,4.7651497E-1,-2.8949616E-2,4.139735E-2,7.1185046E-1,-3.3396624E-2,-2.9660258E-1],"split_indices":[3,3,7,3,2,3,11,0,0,0,0,0,0,0,0],"split_type":[0,0,0,0,0,0,0,0,0,0,0,0,0,0,0],"sum_hessian":[7.38E2,2.64E2,4.74E2,2.24E2,4E1,1.22E2,3.52E2,1.76E2,4.8E1,2.3E1,1.7E1,1.18E2,4E0,3.3E2,2.2E1],"tree_param":{"num_deleted":"0","num_feature":"12","num_nodes":"15","size_leaf_vector":"0"}},{"base_weights":[3.2811172E-3,9.720552E-3,-4.7490215E-1,-1.9240879E0,1.7589716E-2,-5.446106E-1,-3.261576E-2,1.3100593E-2,-5.900074E-2],"categories":[],"categories_nodes":[],"categories_segments":[],"categories_sizes":[],"default_left":[0,0,0,0,0,0,0,0,0],"id":79,"left_children":[1,3,-1,5,7,-1,-1,-1,-1],"loss_changes":[1.133838E1,1.1264327E1,0E0,3.7768822E0,1.10426655E1,0E0,0E0,0E0,0E0],"parents":[2147483647,0,0,1,1,3,3,4,4],"right_children":[2,4,-1,6,8,-1,-1,-1,-1],"split_conditions":[3.2205942E0,-1.0820255E0,-4.7490215E-1,1.0585163E0,1.2294695E0,-5.446106E-1,-3.261576E-2,1.3100593E-2,-5.900074E-2],"split_indices":[3,7,0,0,8,0,0,0,0],"split_type":[0,0,0,0,0,0,0,0,0],"sum_hessian":[7.38E2,7.37E2,1E0,2E0,7.35E2,1E0,1E0,6.38E2,9.7E1],"tree_param":{"num_deleted":"0","num_feature":"12","num_nodes":"9","size_leaf_vector":"0"}},{"base_weights":[1.1397621E-3,-2.0643067E-2,6.801462E-1,-4.3376532E-4,-1.8116381E0,1.7876707E0,-1.5952465E-1,8.985381E-3,-7.478345E-2,3.0885297E-1,-5.023324E-1,3.2322485E-2,5.689549E-1,5.991161E-2,-6.1276E-1],"categories":[],"categories_nodes":[],"categories_segments":[],"categories_sizes":[],"default_left":[0,0,0,0,0,0,0,0,0,0,0,0,0,0,0],"id":80,"left_children":[1,3,5,7,9,11,13,-1,-1,-1,-1,-1,-1,-1,-1],"loss_changes":[1.0944353E1,2.5950855E1,2.1674164E1,1.2045236E1,2.2672369E1,1.6729368E1,1.958402E1,0E0,0E0,0E0,0E0,0E0,0E0,0E0,0E0],"parents":[2147483647,0,0,1,1,2,2,3,3,4,4,5,5,6,6],"right_children":[2,4,6,8,10,12,14,-1,-1,-1,-1,-1,-1,-1,-1],"split_conditions":[2.007517E0,1.9376177E0,-4.085153E-1,1.2971381E0,-7.0127636E-1,-7.0127636E-1,-9.11709E-1,8.985381E-3,-7.478345E-2,3.0885297E-1,-5.023324E-1,3.2322485E-2,5.689549E-1,5.991161E-2,-6.1276E-1],"split_indices":[1,1,11,10,7,7,6,0,0,0,0,0,0,0,0],"split_type":[0,0,0,0,0,0,0,0,0,0,0,0,0,0,0],"sum_hessian":[7.38E2,7.16E2,2.2E1,7.09E2,7E0,9E0,1.3E1,6.33E2,7.6E1,1E0,6E0,4E0,5E0,1.2E1,1E0],"tree_param":{"num_deleted":"0","num_feature":"12","num_nodes":"15","size_leaf_vector":"0"}},{"base_weights":[6.2710315E-4,1.5548171E-1,-9.6925855E-2,4.2392322E-1,-2.302988E-1,-6.597435E-1,7.8524366E-2,8.3490306E-1,4.72184E-2,5.872346E-2,-1.2950599E-1,2.0582188E-2,-2.687848E-1,2.3604746E-1,-8.984251E-3],"categories":[],"categories_nodes":[],"categories_segments":[],"categories_sizes":[],"default_left":[0,0,0,0,0,0,0,0,0,0,0,0,0,0,0],"id":81,"left_children":[1,3,5,7,9,11,13,-1,-1,-1,-1,-1,-1,-1,-1],"loss_changes":[1.1178792E1,2.9715649E1,4.48827E1,1.1807126E2,2.5984234E1,5.6491974E1,4.7245583E1,0E0,0E0,0E0,0E0,0E0,0E0,0E0,0E0],"parents":[2147483647,0,0,1,1,2,2,3,3,4,4,5,5,6,6],"right_children":[2,4,6,8,10,12,14,-1,-1,-1,-1,-1,-1,-1,-1],"split_conditions":[-2.9587007E-1,-8.7511644E-2,5.8962684E-3,-2.8832945E-5,-5.0481606E-1,2.0020444E-2,2.585949E-1,8.3490306E-1,4.72184E-2,5.872346E-2,-1.2950599E-1,2.0582188E-2,-2.687848E-1,2.3604746E-1,-8.984251E-3],"split_indices":[5,8,5,0,2,0,5,0,0,0,0,0,0,0,0],"split_type":[0,0,0,0,0,0,0,0,0,0,0,0,0,0,0],"sum_hessian":[7.38E2,2.85E2,4.53E2,1.68E2,1.17E2,1.07E2,3.46E2,7E0,1.61E2,5.2E1,6.5E1,5.1E1,5.6E1,3.4E1,3.12E2],"tree_param":{"num_deleted":"0","num_feature":"12","num_nodes":"15","size_leaf_vector":"0"}},{"base_weights":[1.5707971E-3,-1.5911307E-2,8.464345E-1,-1.0167058E-1,1.840044E-1,8.253204E-1,3.1737947E-1,-2.4904859E-1,-2.3621463E-3,2.75605E-1,-8.823821E-3,1.6305642E-1,-3.5600483E-1],"categories":[],"categories_nodes":[],"categories_segments":[],"categories_sizes":[],"default_left":[0,0,0,0,0,0,0,0,0,0,0,0,0],"id":82,"left_children":[1,3,5,7,9,-1,11,-1,-1,-1,-1,-1,-1],"loss_changes":[1.09284935E1,1.2448561E1,2.4721138E1,5.2188004E1,5.9440536E1,0E0,1.6071463E1,0E0,0E0,0E0,0E0,0E0,0E0],"parents":[2147483647,0,0,1,1,2,2,3,3,4,4,6,6],"right_children":[2,4,6,8,10,-1,12,-1,-1,-1,-1,-1,-1],"split_conditions":[1.8753755E0,4.3434066E-1,-1.7163079E0,-5.7816625E-1,5.941674E-1,8.253204E-1,7.5249314E-1,-2.4904859E-1,-2.3621463E-3,2.75605E-1,-8.823821E-3,1.6305642E-1,-3.5600483E-1],"split_indices":[5,0,3,8,0,0,7,0,0,0,0,0,0],"split_type":[0,0,0,0,0,0,0,0,0,0,0,0,0],"sum_hessian":[7.38E2,7.24E2,1.4E1,5.07E2,2.17E2,1E0,1.3E1,3.6E1,4.71E2,3.4E1,1.83E2,1.1E1,2E0],"tree_param":{"num_deleted":"0","num_feature":"12","num_nodes":"13","size_leaf_vector":"0"}},{"base_weights":[2.1328598E-3,-9.743269E-1,1.822542E-2,-2.1762784E-1,-4.8666364E-1,8.416316E-1,-1.1040743E-2,-1.6389313E-1,4.3973733E-2,-1.8989007E-1,2.4560039E-1,8.9174986E-2,-1.0860576E-2],"categories":[],"categories_nodes":[],"categories_segments":[],"categories_sizes":[],"default_left":[0,0,0,0,0,0,0,0,0,0,0,0,0],"id":83,"left_children":[1,3,5,7,-1,9,11,-1,-1,-1,-1,-1,-1],"loss_changes":[1.163021E1,1.271865E1,1.7552591E1,2.5498922E0,0E0,1.8466452E1,1.3940284E1,0E0,0E0,0E0,0E0,0E0,0E0],"parents":[2147483647,0,0,1,1,2,2,3,3,5,5,6,6],"right_children":[2,4,6,8,-1,10,12,-1,-1,-1,-1,-1,-1],"split_conditions":[-1.927371E0,1.6408386E0,-1.6574986E0,6.2273866E-1,-4.8666364E-1,-7.0127636E-1,-1.1346941E0,-1.6389313E-1,4.3973733E-2,-1.8989007E-1,2.4560039E-1,8.9174986E-2,-1.0860576E-2],"split_indices":[5,10,5,3,0,7,8,0,0,0,0,0,0],"split_type":[0,0,0,0,0,0,0,0,0,0,0,0,0],"sum_hessian":[7.38E2,1.1E1,7.27E2,8E0,3E0,2.4E1,7.03E2,3E0,5E0,4E0,2E1,6E1,6.43E2],"tree_param":{"num_deleted":"0","num_feature":"12","num_nodes":"13","size_leaf_vector":"0"}},{"base_weights":[1.0668403E-3,-3.921326E-1,3.638952E-2,-7.854206E-2,-6.5582937E-1,2.2952206E-2,1.8431488E0,9.34416E-2,-1.3932924E-1,-2.1190634E-1,1.4763637E-1,2.4683936E-1,9.461779E-4,-3.2798003E-2,6.47181E-1],"categories":[],"categories_nodes":[],"categories_segments":[],"categories_sizes":[],"default_left":[0,0,0,0,0,0,0,0,0,0,0,0,0,0,0],"id":84,"left_children":[1,3,5,7,9,11,13,-1,-1,-1,-1,-1,-1,-1,-1],"loss_changes":[1.0278135E1,4.992752E0,1.6442451E1,1.0108059E1,1.935339E1,1.4891729E1,1.4507929E1,0E0,0E0,0E0,0E0,0E0,0E0,0E0,0E0],"parents":[2147483647,0,0,1,1,2,2,3,3,4,4,5,5,6,6],"right_children":[2,4,6,8,10,12,14,-1,-1,-1,-1,-1,-1,-1,-1],"split_conditions":[-1.1782514E0,-2.1668652E-1,2.0593793E0,-1.5394865E0,-8.29001E-1,-1.171723E0,-7.0127636E-1,9.34416E-2,-1.3932924E-1,-2.1190634E-1,1.4763637E-1,2.4683936E-1,9.461779E-4,-3.2798003E-2,6.47181E-1],"split_indices":[9,7,5,9,1,9,7,0,0,0,0,0,0,0,0],"split_type":[0,0,0,0,0,0,0,0,0,0,0,0,0,0,0],"sum_hessian":[7.38E2,6E1,6.78E2,2.8E1,3.2E1,6.74E2,4E0,1.5E1,1.3E1,2.5E1,7E0,9E0,6.65E2,2E0,2E0],"tree_param":{"num_deleted":"0","num_feature":"12","num_nodes":"15","size_leaf_vector":"0"}},{"base_weights":[1.8711981E-3,9.344045E-2,-1.2728631E-1,1.7319526E-1,-7.648325E-1,-4.8896956E-1,1.7094597E-1,1.8773573E-2,3.881749E-1,-4.0313134E-1,2.868137E-1,6.456532E-2,-1.3572228E-1,7.302861E-1,1.2888143E-2],"categories":[],"categories_nodes":[],"categories_segments":[],"categories_sizes":[],"default_left":[0,0,0,0,0,0,0,0,0,0,0,0,0,0,0],"id":85,"left_children":[1,3,5,7,9,11,13,-1,-1,-1,-1,-1,-1,-1,-1],"loss_changes":[8.751942E0,2.977192E1,3.3198338E1,5.5487293E1,1.0465682E2,2.1618195E1,6.2411293E1,0E0,0E0,0E0,0E0,0E0,0E0,0E0,0E0],"parents":[2147483647,0,0,1,1,2,2,3,3,4,4,5,5,6,6],"right_children":[2,4,6,8,10,12,14,-1,-1,-1,-1,-1,-1,-1,-1],"split_conditions":[-4.154E-2,1.2898831E0,3.103594E-1,9.53201E-1,7.5249314E-1,-7.0127636E-1,3.1315535E-1,1.8773573E-2,3.881749E-1,-4.0313134E-1,2.868137E-1,6.456532E-2,-1.3572228E-1,7.302861E-1,1.2888143E-2],"split_indices":[8,1,1,1,7,7,1,0,0,0,0,0,0,0,0],"split_type":[0,0,0,0,0,0,0,0,0,0,0,0,0,0,0],"sum_hessian":[7.38E2,4.32E2,3.06E2,3.96E2,3.6E1,1.38E2,1.68E2,3.8E2,1.6E1,2.3E1,1.3E1,2.6E1,1.12E2,4E0,1.64E2],"tree_param":{"num_deleted":"0","num_feature":"12","num_nodes":"15","size_leaf_vector":"0"}},{"base_weights":[2.799833E-3,-8.7420744E-1,1.8478367E-2,-3.0322608E-1,-4.1662177E-1,8.6492187E-1,-4.2309486E-3,1.0851174E-1,-9.1497295E-2,-1.6266243E-1,2.7333435E-1,1.5296369E-2,-4.0336497E-2],"categories":[],"categories_nodes":[],"categories_segments":[],"categories_sizes":[],"default_left":[0,0,0,0,0,0,0,0,0,0,0,0,0],"id":86,"left_children":[1,3,5,7,-1,9,11,-1,-1,-1,-1,-1,-1],"loss_changes":[1.0177544E1,8.341728E0,1.3978165E1,1.5529239E0,0E0,1.7110552E1,1.1314661E1,0E0,0E0,0E0,0E0,0E0,0E0],"parents":[2147483647,0,0,1,1,2,2,3,3,5,5,6,6],"right_children":[2,4,6,8,-1,10,12,-1,-1,-1,-1,-1,-1],"split_conditions":[-1.9028372E0,1.6408386E0,-1.7433671E0,-2.159216E0,-4.1662177E-1,-7.0127636E-1,5.387039E-1,1.0851174E-1,-9.1497295E-2,-1.6266243E-1,2.7333435E-1,1.5296369E-2,-4.0336497E-2],"split_indices":[5,10,5,5,0,7,9,0,0,0,0,0,0],"split_type":[0,0,0,0,0,0,0,0,0,0,0,0,0],"sum_hessian":[7.38E2,1.2E1,7.26E2,9E0,3E0,1.8E1,7.08E2,1E0,8E0,4E0,1.4E1,5.03E2,2.05E2],"tree_param":{"num_deleted":"0","num_feature":"12","num_nodes":"13","size_leaf_vector":"0"}},{"base_weights":[1.8147783E-3,3.206136E-1,-4.066196E-2,-5.703179E-1,6.1273295E-1,-1.1385329E0,3.0382525E-3,1.75502E-1,-2.0955358E-1,1.6524874E-1,-3.320162E-1,-2.999393E-1,1.2121216E-1,6.776346E-1,-4.8095374E-3],"categories":[],"categories_nodes":[],"categories_segments":[],"categories_sizes":[],"default_left":[0,0,0,0,0,0,0,0,0,0,0,0,0,0,0],"id":87,"left_children":[1,3,5,7,9,11,13,-1,-1,-1,-1,-1,-1,-1,-1],"loss_changes":[1.002023E1,2.299193E1,3.133257E1,1.6127264E1,3.3399452E1,1.6661E1,5.7754204E1,0E0,0E0,0E0,0E0,0E0,0E0,0E0,0E0],"parents":[2147483647,0,0,1,1,2,2,3,3,4,4,5,5,6,6],"right_children":[2,4,6,8,10,12,14,-1,-1,-1,-1,-1,-1,-1,-1],"split_conditions":[-1.1742742E0,-1.8432708E0,-1.0766104E0,-7.0127636E-1,1.5952328E0,1.9293542E0,-1.0663557E0,1.75502E-1,-2.0955358E-1,1.6524874E-1,-3.320162E-1,-2.999393E-1,1.2121216E-1,6.776346E-1,-4.8095374E-3],"split_indices":[3,3,3,7,6,7,3,0,0,0,0,0,0,0,0],"split_type":[0,0,0,0,0,0,0,0,0,0,0,0,0,0,0],"sum_hessian":[7.38E2,8.6E1,6.52E2,2.1E1,6.5E1,2.4E1,6.28E2,5E0,1.6E1,6E1,5E0,2E1,4E0,4E0,6.24E2],"tree_param":{"num_deleted":"0","num_feature":"12","num_nodes":"15","size_leaf_vector":"0"}},{"base_weights":[1.8491636E-3,-6.032757E-1,2.2130096E-2,2.6702197E0,-1.6052598E0,6.0799307E-1,-3.335942E-2,-1.00455284E-1,6.8103486E-1,-5.1858115E-1,-1.3025062E-1,2.1320502E-1,-8.14351E-2,-8.558631E-2,1.0470342E-2],"categories":[],"categories_nodes":[],"categories_segments":[],"categories_sizes":[],"default_left":[0,0,0,0,0,0,0,0,0,0,